9.710431098937988281e-02 -7.573950290679931641e-02 1.547877788543701172e-01 -1.799741536378860474e-01 2.348622977733612061e-01 -8.803964406251907349e-02 1.555649042129516602e-01 2.156938910484313965e-01 9.517437219619750977e-02 8.838648349046707153e-02 1.927161216735839844e-02 1.118078008294105530e-01 1.653586626052856445e-01 5.045036319643259048e-03 1.902125030755996704e-01 -8.453609794378280640e-02 1.281527429819107056e-01 -1.308039426803588867e-01 -1.189492195844650269e-01 9.070058166980743408e-02 1.494881659746170044e-01 -8.098126202821731567e-02 -1.612585186958312988e-01 -1.355022192001342773e-02 -5.300991237163543701e-02 -7.162425667047500610e-02 2.178792655467987061e-02 5.732955038547515869e-02 6.176415085792541504e-02 -1.810506284236907959e-01 1.015197932720184326e-01 1.037057489156723022e-01 -8.968330919742584229e-02 2.140413373708724976e-01 1.908764839172363281e-01 -1.990556716918945312e-01 -3.178454935550689697e-02 4.300386831164360046e-02 -2.195319235324859619e-01 -5.401728674769401550e-02 7.860366255044937134e-02 1.003982350230216980e-01 -3.936258330941200256e-02 -1.654265373945236206e-01 -1.493630260229110718e-01 -4.729022830724716187e-02 -1.008282527327537537e-01 -2.136146873235702515e-01 -1.264614909887313843e-01 7.747174799442291260e-02 -6.812915205955505371e-02 3.766854107379913330e-02 1.086462289094924927e-01 7.067559659481048584e-02 -7.527814060449600220e-02 3.864996135234832764e-02 -6.492395699024200439e-02 -1.382477283477783203e-01 1.715710163116455078e-01 -9.132254868745803833e-03 1.803380101919174194e-01 1.207419708371162415e-01 -8.071228861808776855e-02 -1.258847210556268692e-02 9.435825794935226440e-02 1.485240906476974487e-01 5.507390573620796204e-02 1.009078696370124817e-01 3.258948773145675659e-02 -1.454508006572723389e-01 -2.957050874829292297e-02 5.669816955924034119e-02 -9.371423162519931793e-03 -5.043588578701019287e-02 5.544715374708175659e-02 8.387007564306259155e-02 -6.124508380889892578e-02 1.383484899997711182e-02 1.567537635564804077e-01 8.393287658691406250e-03 -1.060232892632484436e-01 -5.278345942497253418e-02 -1.511114835739135742e-01 1.851773709058761597e-01 -1.100244894623756409e-01 8.218426257371902466e-02 5.622953921556472778e-02 1.452733576297760010e-01 -1.397246718406677246e-01 1.313149333000183105e-01 1.009134873747825623e-01 3.880437836050987244e-02 4.554170183837413788e-03 -1.280623823404312134e-01 -1.479708403348922729e-01 -2.121043391525745392e-02 2.005600333213806152e-01 1.907606571912765503e-01 -4.596776142716407776e-02 -5.999740213155746460e-02 2.113146334886550903e-01 2.434980124235153198e-02 -1.252633780241012573e-01 1.179081574082374573e-01 1.689167767763137817e-01 -7.969795167446136475e-02 -1.873487383127212524e-01 -1.054739132523536682e-01 3.940993547439575195e-02 7.136918604373931885e-02 1.868697553873062134e-01 -1.316707879304885864e-01
-3.723275661468505859e-02 -9.564062952995300293e-02 1.510080099105834961e-01 3.582385182380676270e-02 -9.432364255189895630e-02 1.552005261182785034e-01 9.595847129821777344e-02 1.095506027340888977e-01 -1.492308452725410461e-02 7.558991014957427979e-02 8.756585419178009033e-02 -1.196933165192604065e-01 -8.664006739854812622e-02 1.646475642919540405e-01 1.478947848081588745e-01 7.580135017633438110e-02 -1.289345324039459229e-01 -2.032215520739555359e-02 -2.050731927156448364e-01 -7.122709602117538452e-02 1.828953623771667480e-03 -4.472026228904724121e-02 -7.135432213544845581e-02 -1.046263426542282104e-01 -1.191953942179679871e-01 -3.077600896358489990e-02 -6.769133359193801880e-02 1.287267357110977173e-01 4.893160238862037659e-02 -2.492256835103034973e-02 -2.010234445333480835e-01 -1.372418701648712158e-01 -1.000531166791915894e-01 -7.342318445444107056e-02 7.810673117637634277e-02 -2.033358067274093628e-01 -6.457605212926864624e-02 -4.749914258718490601e-02 -6.066524609923362732e-02 1.437950730323791504e-01 1.352466195821762085e-01 1.310118734836578369e-01 1.359320431947708130e-01 6.337600946426391602e-02 -9.833205491304397583e-02 2.519053407013416290e-02 -8.418019115924835205e-02 1.242842897772789001e-01 7.154189050197601318e-02 5.102840065956115723e-02 -2.671575546264648438e-02 -1.377468854188919067e-01 1.010251045227050781e-02 -1.684202104806900024e-01 -1.711117327213287354e-01 1.397198289632797241e-01 -1.159699168056249619e-02 -1.652395725250244141e-01 -1.220300719141960144e-01 -1.033140420913696289e-01 5.111906677484512329e-02 1.512062400579452515e-01 -1.277607306838035583e-02 -1.796029321849346161e-02 1.581162363290786743e-01 1.670538634061813354e-01 6.773629784584045410e-02 9.133238345384597778e-02 -2.089958265423774719e-02 -7.785678654909133911e-02 4.037184268236160278e-02 -5.439272522926330566e-02 2.324712835252285004e-02 -2.057317048311233521e-01 7.492417842149734497e-02 3.071558475494384766e-02 -4.413288831710815430e-02 1.421719789505004883e-02 1.503906995058059692e-01 1.475284248590469360e-01 -1.170553267002105713e-01 -1.236111521720886230e-01 3.554527461528778076e-02 -1.748542040586471558e-01 1.458773016929626465e-01 -1.265951991081237793e-01 -1.979590207338333130e-01 -1.736541092395782471e-01 -7.086430490016937256e-02 6.700808554887771606e-02 -1.051896736025810242e-01 1.042648091242881492e-05 -1.029685214161872864e-01 -2.353959344327449799e-02 8.414658159017562866e-02 -1.968667283654212952e-02 -2.859032154083251953e-02 8.190259337425231934e-02 1.167768463492393494e-01 -2.980650402605533600e-02 6.431601196527481079e-02 1.687946356832981110e-02 -8.937921375036239624e-02 1.624625325202941895e-01 -1.133635491132736206e-01 -1.143204197287559509e-01 1.165317147970199585e-01 1.119308322668075562e-01 1.476719230413436890e-01 -1.068632826209068298e-01 -2.843143045902252197e-02 1.217051595449447632e-01
-2.362444438040256500e-02 7.382548600435256958e-02 1.387240290641784668e-01 -2.576699256896972656e-01 -1.779898256063461304e-02 7.355207949876785278e-02 -2.140751034021377563e-01 -1.564147472381591797e-01 -2.821865864098072052e-02 7.925454527139663696e-02 -2.492600679397583008e-01 1.019736826419830322e-01 1.669295318424701691e-02 -4.867108911275863647e-02 1.264579407870769501e-02 4.144890978932380676e-02 5.022704601287841797e-02 1.988936811685562134e-01 1.789311766624450684e-01 -4.419121891260147095e-02 9.362696111202239990e-02 -1.000026986002922058e-01 -1.150206997990608215e-01 1.738656610250473022e-01 -1.354316771030426025e-01 8.459688723087310791e-02 -1.975217461585998535e-02 1.538822501897811890e-01 1.138262152671813965e-01 6.170794740319252014e-02 9.558502584695816040e-02 1.527021378278732300e-01 -1.064789369702339172e-01 -2.068044245243072510e-02 -1.609282791614532471e-01 1.641285978257656097e-02 9.121111035346984863e-02 4.155353084206581116e-02 -1.293862462043762207e-01 -2.297872006893157959e-01 -1.674816906452178955e-01 1.291570216417312622e-01 -1.303128618746995926e-02 2.503212168812751770e-02 7.661423832178115845e-02 2.630710005760192871e-01 -1.330456137657165527e-01 -1.694060117006301880e-01 -1.838112771511077881e-01 1.802933365106582642e-01 8.299887180328369141e-03 3.017936646938323975e-02 1.551191508769989014e-02 9.517715871334075928e-02 6.448484957218170166e-02 -1.357120722532272339e-01 -1.246214359998703003e-01 1.721548661589622498e-02 3.690247610211372375e-02 -1.195651516318321228e-01 1.201089355163276196e-03 -1.162271127104759216e-01 -2.594217285513877869e-02 1.668267697095870972e-02 7.927422225475311279e-02 2.039942890405654907e-02 -8.314048871397972107e-03 1.302550081163644791e-02 -1.645635962486267090e-01 -4.109192639589309692e-02 -1.400985568761825562e-01 -2.126916944980621338e-01 -2.176308631896972656e-01 -5.303953588008880615e-02 -1.042548492550849915e-01 4.561928287148475647e-02 -8.568348735570907593e-02 -3.943088650703430176e-02 1.539752632379531860e-01 -1.713284999132156372e-01 -8.182725310325622559e-02 -1.046647354960441589e-01 -1.845569908618927002e-02 -4.058970510959625244e-02 5.043741315603256226e-02 1.016154214739799500e-01 1.356800943613052368e-01 4.141292721033096313e-02 2.447220236063003540e-01 2.251940518617630005e-01 2.791056334972381592e-01 -7.804682105779647827e-02 -4.495311900973320007e-02 2.537343651056289673e-02 1.748490035533905029e-01 1.760418713092803955e-01 -9.263489395380020142e-03 -7.773417979478836060e-02 -2.891057431697845459e-01 -2.316657751798629761e-01 -9.405721724033355713e-02 -4.074316471815109253e-02 1.561393495649099350e-02 3.768395632505416870e-02 -9.470121562480926514e-02 9.634517133235931396e-02 1.570613235235214233e-01 -3.010880947113037109e-02 1.794569343328475952e-01 1.410854309797286987e-01 -6.125149130821228027e-02 -2.369518578052520752e-02
-1.691864877939224243e-01 4.870150703936815262e-03 -1.437014639377593994e-01 3.735955432057380676e-02 1.791236996650695801e-01 1.298170089721679688e-01 1.345293819904327393e-01 4.878168553113937378e-02 -3.482557367533445358e-03 -4.253769665956497192e-02 1.334603875875473022e-01 -1.760934293270111084e-01 -8.491724729537963867e-02 -1.713280081748962402e-01 1.260591745376586914e-01 -7.654444128274917603e-02 2.445303462445735931e-02 1.437038630247116089e-01 1.230122894048690796e-01 1.855279086157679558e-03 -1.484412699937820435e-01 5.449314415454864502e-02 8.080239593982696533e-02 -8.595085889101028442e-02 -5.605895817279815674e-02 1.508560031652450562e-01 1.001689285039901733e-01 -7.073923945426940918e-03 3.434284031391143799e-02 1.944378316402435303e-01 1.180069074034690857e-01 7.688400894403457642e-02 4.127387329936027527e-02 -1.562785543501377106e-02 2.015618830919265747e-01 1.804407387971878052e-01 1.675177961587905884e-01 -2.499599009752273560e-02 9.734411723911762238e-03 4.140130430459976196e-02 1.246491745114326477e-01 -4.742692410945892334e-02 3.877108916640281677e-02 -3.635437414050102234e-02 1.894031614065170288e-01 -1.684832270257174969e-03 6.287545710802078247e-02 1.233525797724723816e-01 4.309189319610595703e-02 -1.121107861399650574e-01 -9.774782508611679077e-02 -6.587689369916915894e-02 1.270358711481094360e-01 2.115929126739501953e-02 1.279540807008743286e-01 -2.308674156665802002e-02 5.203564092516899109e-02 7.096661627292633057e-02 5.929159745573997498e-02 4.981525614857673645e-02 1.279090940952301025e-01 -9.877534210681915283e-02 9.284657984972000122e-02 3.621726855635643005e-02 1.680258214473724365e-01 1.557075679302215576e-01 9.057597257196903229e-03 6.916572898626327515e-02 -1.059261187911033630e-01 1.127165257930755615e-01 -3.986258059740066528e-02 -1.664570420980453491e-01 1.223507747054100037e-01 -9.529052674770355225e-02 2.687652595341205597e-03 8.461619913578033447e-02 9.804664552211761475e-02 -8.167883008718490601e-02 1.784721165895462036e-01 -1.627892255783081055e-01 9.777729213237762451e-02 5.175836384296417236e-02 8.539624512195587158e-02 7.052569091320037842e-02 1.242865622043609619e-02 1.166824176907539368e-01 2.396006323397159576e-02 -1.388783901929855347e-01 -1.116540729999542236e-01 1.580883711576461792e-01 -9.956949949264526367e-02 -1.184397935867309570e-01 4.443376883864402771e-02 -1.352722197771072388e-01 7.200925052165985107e-02 -2.122681140899658203e-01 1.258440613746643066e-01 1.328716725111007690e-01 -9.775026887655258179e-02 -3.175994753837585449e-02 -1.296692639589309692e-01 9.655914455652236938e-02 -9.944743663072586060e-02 -5.956131592392921448e-02 1.652811318635940552e-01 -7.284489274024963379e-02 1.071370393037796021e-01 -1.201515942811965942e-01 -7.704680413007736206e-02 -5.309493839740753174e-02 -4.230479896068572998e-02 -1.573353707790374756e-01
1.557563543319702148e-01 1.317812502384185791e-01 2.061434984207153320e-01 1.177932247519493103e-01 9.942322969436645508e-02 9.839175641536712646e-02 3.898324817419052124e-02 -2.770034223794937134e-02 -1.301990002393722534e-01 1.951117664575576782e-01 -6.488522142171859741e-02 -1.647309958934783936e-01 7.550065964460372925e-02 1.626368016004562378e-01 1.085653379559516907e-01 9.805177152156829834e-02 -1.733531504869461060e-01 -1.362643390893936157e-01 1.751156151294708252e-02 -2.103568017482757568e-01 8.323164284229278564e-02 -1.091371700167655945e-01 2.480070292949676514e-02 -6.435775756835937500e-02 -4.788991808891296387e-02 1.047322303056716919e-01 6.546668708324432373e-02 -1.222304701805114746e-01 7.354272902011871338e-02 8.606067299842834473e-02 6.285174936056137085e-02 -1.419532578438520432e-02 -2.063971944153308868e-02 6.589899212121963501e-02 1.454598158597946167e-01 5.429652705788612366e-02 2.010808289051055908e-01 -1.316952705383300781e-01 -1.244092211127281189e-01 3.844669461250305176e-02 2.202517390251159668e-01 1.600072383880615234e-01 1.652207821607589722e-01 1.048827245831489563e-01 -1.401467174291610718e-01 1.551706343889236450e-01 7.161122560501098633e-02 5.448168516159057617e-02 4.098211228847503662e-02 -1.478153467178344727e-01 9.143121540546417236e-02 -1.423301696777343750e-01 -1.566385179758071899e-01 -1.566132009029388428e-01 8.514404296875000000e-03 3.522488474845886230e-02 -4.445647820830345154e-02 1.329512745141983032e-01 5.021504312753677368e-02 5.478586535900831223e-03 1.597055345773696899e-01 -3.760815039277076721e-02 1.373102664947509766e-01 -6.107456237077713013e-02 9.069012850522994995e-02 1.086059957742691040e-01 -3.467029705643653870e-02 1.342696696519851685e-01 -6.726898998022079468e-02 -1.287648230791091919e-01 1.570856273174285889e-01 -6.099481508135795593e-02 7.161778211593627930e-02 -7.955960184335708618e-02 4.231882747262716293e-03 -1.065180525183677673e-01 -1.875320374965667725e-01 1.259195059537887573e-01 -9.382747113704681396e-02 -6.084984540939331055e-02 -4.406166076660156250e-02 -2.225354313850402832e-03 -5.758160352706909180e-02 -5.247314274311065674e-02 -9.751217812299728394e-02 -2.784103900194168091e-02 3.714230284094810486e-02 3.721003234386444092e-02 -2.079040110111236572e-01 4.859712719917297363e-02 1.453093886375427246e-01 1.185730695724487305e-01 7.684106379747390747e-02 1.362161636352539062e-01 -1.881004720926284790e-01 -1.020184308290481567e-01 -1.663839221000671387e-01 -9.010535478591918945e-02 -1.130687296390533447e-01 -1.245104372501373291e-01 -1.337618231773376465e-01 -1.750537902116775513e-01 7.550171017646789551e-02 3.851539269089698792e-02 -9.395305067300796509e-02 -4.586069285869598389e-02 1.504146605730056763e-01 1.039048582315444946e-01 -5.664217472076416016e-02 -8.349858969449996948e-02 8.945561945438385010e-02 -3.394788503646850586e-02
-1.245472058653831482e-01 1.897886395454406738e-02 -1.573124825954437256e-01 -1.774176210165023804e-01 -6.522600352764129639e-02 -4.412618279457092285e-02 1.630186587572097778e-01 -9.259615838527679443e-02 -5.982007086277008057e-02 -7.671856880187988281e-02 1.364813745021820068e-02 1.763204783201217651e-01 -1.575825065374374390e-01 2.498412132263183594e-02 -9.336289018392562866e-02 9.489612281322479248e-02 1.619188338518142700e-01 -5.930066108703613281e-02 1.738032549619674683e-01 9.120948612689971924e-02 1.314315944910049438e-01 -1.609531044960021973e-02 -1.537510454654693604e-01 -3.658492863178253174e-02 -1.931908726692199707e-02 1.556061208248138428e-02 -7.286940515041351318e-02 -4.808898270130157471e-02 -7.964992523193359375e-02 -1.158492043614387512e-01 -2.510352432727813721e-02 -7.488265633583068848e-03 -6.586015224456787109e-03 7.671073079109191895e-03 -7.684588432312011719e-03 1.569287329912185669e-01 1.494927257299423218e-01 1.083051413297653198e-01 1.104629188776016235e-01 -1.428877413272857666e-01 -6.253853440284729004e-02 -4.881142079830169678e-02 -1.998168230056762695e-02 -2.906486392021179199e-03 -2.552269399166107178e-02 -1.469791233539581299e-01 4.758280515670776367e-02 4.151608049869537354e-02 1.006152778863906860e-01 -1.609559506177902222e-01 -6.587132811546325684e-03 -1.370907276868820190e-01 5.048105120658874512e-02 6.453280150890350342e-02 -5.939145386219024658e-02 5.219312012195587158e-02 5.803203582763671875e-02 -1.817774623632431030e-01 -1.022407636046409607e-01 -7.497279345989227295e-02 -1.546047329902648926e-01 -1.314847469329833984e-01 -1.256488263607025146e-02 1.714528948068618774e-01 -1.319983601570129395e-01 1.128261536359786987e-01 -1.313004195690155029e-01 -1.610182225704193115e-01 -1.125668063759803772e-01 1.200209707021713257e-01 -9.036214649677276611e-02 1.055736094713211060e-01 2.204565703868865967e-02 -1.300382465124130249e-01 -1.536722481250762939e-01 -3.098070621490478516e-02 1.555653065443038940e-01 1.370451301336288452e-01 7.808445394039154053e-02 1.195057481527328491e-01 -1.387648135423660278e-01 -1.871196329593658447e-01 -1.806993782520294189e-01 -1.256897598505020142e-01 -1.247200444340705872e-01 8.590836822986602783e-02 -2.757687866687774658e-02 -1.384407281875610352e-01 -1.152667999267578125e-01 -1.566566824913024902e-01 3.558713197708129883e-02 -1.736591160297393799e-01 6.615917384624481201e-02 1.833460777997970581e-01 -1.051204428076744080e-01 8.801375329494476318e-02 -1.855143010616302490e-01 -2.774834632873535156e-03 1.636723130941390991e-01 -7.392883300781250000e-03 5.319216847419738770e-02 -3.557217121124267578e-02 9.995724260807037354e-02 3.067517280578613281e-02 5.889578163623809814e-02 -1.836771070957183838e-01 1.082756966352462769e-01 -2.501428127288818359e-03 1.190110296010971069e-01 -1.245172023773193359e-01 1.494644582271575928e-02 -7.173195481300354004e-03
-9.622759371995925903e-02 1.481541339308023453e-02 9.584955126047134399e-02 -1.350849717855453491e-01 -3.133665770292282104e-02 1.373082119971513748e-02 1.672403812408447266e-01 -1.445608120411634445e-02 -4.677110351622104645e-03 2.986889332532882690e-03 -1.976560801267623901e-01 1.051514521241188049e-01 3.955023363232612610e-02 1.119196936488151550e-01 2.876684814691543579e-02 -7.880222052335739136e-02 -1.255600750446319580e-01 -6.036007404327392578e-02 2.577630616724491119e-02 6.971102207899093628e-02 -8.617339283227920532e-02 -1.379675865173339844e-01 1.362430304288864136e-01 6.825964152812957764e-02 1.710500866174697876e-01 4.976478219032287598e-02 1.642758399248123169e-01 4.577413201332092285e-03 -1.184285338968038559e-02 -1.133746951818466187e-01 -1.353972703218460083e-01 1.541760712862014771e-01 1.574606150388717651e-01 -3.349801152944564819e-02 4.009192436933517456e-02 -1.911000609397888184e-01 -1.546027958393096924e-01 -1.565919630229473114e-02 -1.314341425895690918e-01 -7.488855719566345215e-02 1.262926608324050903e-01 2.594809234142303467e-02 -1.664335429668426514e-01 -6.835544109344482422e-02 -4.849344864487648010e-02 9.046429395675659180e-02 -9.920379519462585449e-02 -9.694396704435348511e-02 1.759525984525680542e-01 -1.392990946769714355e-01 1.290394216775894165e-01 -5.739849805831909180e-02 -1.344307065010070801e-01 1.413414031267166138e-01 -9.119110554456710815e-02 -7.904327660799026489e-02 8.644330501556396484e-02 -1.899650990962982178e-01 2.438065409660339355e-02 -1.000481396913528442e-01 -1.360355615615844727e-01 -1.691789925098419189e-01 -5.152793601155281067e-02 1.410680115222930908e-01 -9.732797625474631786e-04 2.127961255609989166e-02 8.676011115312576294e-02 -1.526175141334533691e-01 -1.798747223801910877e-03 -4.103312268853187561e-02 -1.080030128359794617e-01 -1.816400289535522461e-01 1.366366147994995117e-01 3.073348850011825562e-02 -5.378223210573196411e-02 9.372026473283767700e-02 -1.448210924863815308e-01 -1.601357758045196533e-02 -1.882305741310119629e-02 1.105266660451889038e-01 1.878981143236160278e-01 -4.903972148895263672e-02 1.516651064157485962e-01 8.557318150997161865e-02 -7.186680287122726440e-02 -8.620152622461318970e-02 1.161589697003364563e-01 5.338662490248680115e-02 -9.857666492462158203e-02 4.193842038512229919e-02 8.094415813684463501e-02 -5.288138613104820251e-02 -5.340536311268806458e-02 9.708333760499954224e-03 6.627226620912551880e-02 -2.302834577858448029e-02 -1.371220052242279053e-01 1.334891766309738159e-01 1.575087606906890869e-01 -1.470301747322082520e-01 -5.866527929902076721e-02 -1.374976634979248047e-01 7.432455569505691528e-02 -1.365991085767745972e-01 -2.954280376434326172e-02 3.383994102478027344e-03 -5.243836343288421631e-02 1.729588061571121216e-01 -1.174719706177711487e-01 5.335982143878936768e-02 1.109182089567184448e-01 -1.504786014556884766e-01
-4.579443484544754028e-02 7.545997202396392822e-02 -8.291826397180557251e-02 2.587999403476715088e-01 9.005721658468246460e-02 7.679119706153869629e-02 -1.703343689441680908e-01 -9.853456169366836548e-02 4.975454881787300110e-02 -9.244506806135177612e-02 3.941581770777702332e-02 -2.003653720021247864e-02 -5.706935748457908630e-02 4.938869923353195190e-02 1.087381392717361450e-01 -1.020903214812278748e-01 -1.299169212579727173e-01 -2.180889546871185303e-01 -4.779741540551185608e-02 -1.134572550654411316e-01 6.625203788280487061e-02 -8.636222779750823975e-02 -1.123012900352478027e-01 3.671820461750030518e-02 1.364888101816177368e-01 -9.550850093364715576e-02 1.177993416786193848e-02 2.199213206768035889e-02 -5.811574682593345642e-02 -3.206738084554672241e-02 -9.202988445758819580e-02 3.478991612792015076e-02 -1.242314837872982025e-02 -1.513734161853790283e-01 6.604446470737457275e-02 1.686587929725646973e-01 3.467182442545890808e-02 6.640540808439254761e-02 2.615396678447723389e-01 1.052995696663856506e-01 -4.539827629923820496e-02 1.043820902705192566e-01 1.745028644800186157e-01 -1.321319192647933960e-01 -1.232534348964691162e-01 9.036720730364322662e-03 -1.766514149494469166e-03 -3.649435192346572876e-02 6.162747740745544434e-03 -2.392998337745666504e-02 -7.776945829391479492e-03 -7.930374890565872192e-02 6.176488101482391357e-02 8.639521896839141846e-02 -1.882091462612152100e-01 -5.251203477382659912e-02 -2.941130287945270538e-02 -2.300276160240173340e-01 2.732859365642070770e-02 -2.681335434317588806e-02 -6.502021849155426025e-02 -7.888291962444782257e-03 5.399472266435623169e-02 6.528598070144653320e-02 2.152957469224929810e-01 1.681687086820602417e-01 1.453152894973754883e-01 1.113706231117248535e-01 -1.423075348138809204e-01 -2.213371545076370239e-01 -9.694769978523254395e-02 -7.292706519365310669e-02 -1.068043783307075500e-01 -2.476564347743988037e-01 1.128849908709526062e-01 -1.753068417310714722e-01 1.365819424390792847e-01 -1.791671365499496460e-01 5.198855698108673096e-02 -1.312078237533569336e-01 -1.071626842021942139e-01 1.098431795835494995e-01 5.239953100681304932e-02 -1.757297962903976440e-01 1.072315871715545654e-01 1.321581751108169556e-01 1.429409533739089966e-01 3.805657848715782166e-02 6.170382723212242126e-02 -1.940371692180633545e-01 -1.298357546329498291e-01 1.437382549047470093e-01 1.442619711160659790e-01 6.160145252943038940e-02 9.070626646280288696e-02 -1.043659374117851257e-01 -9.452955424785614014e-02 6.571996212005615234e-02 -1.320997029542922974e-01 -6.096230074763298035e-02 4.853472486138343811e-02 -1.672462224960327148e-01 9.489337354898452759e-02 -1.360237002372741699e-01 1.127520352602005005e-01 -1.579045206308364868e-01 -6.551638990640640259e-02 1.228326112031936646e-01 3.011813759803771973e-02 4.738104343414306641e-02 1.140775531530380249e-01 1.431088298559188843e-01
1.348041556775569916e-02 -1.293071731925010681e-02 1.428330987691879272e-01 -3.570218384265899658e-02 7.248207926750183105e-02 4.359592869877815247e-02 -1.537268757820129395e-01 1.572434604167938232e-01 6.376661360263824463e-02 1.181137785315513611e-01 -1.223518848419189453e-01 -1.608062833547592163e-01 7.859065383672714233e-02 2.340080402791500092e-02 -2.712345682084560394e-02 -1.298842877149581909e-01 -1.927514560520648956e-02 -4.606618732213973999e-02 2.502482235431671143e-01 1.735748201608657837e-01 1.283173412084579468e-01 1.510698944330215454e-01 5.600839853286743164e-03 1.097127646207809448e-01 -1.707436144351959229e-01 1.356410533189773560e-01 -1.650951802730560303e-02 1.047208905220031738e-03 1.291273236274719238e-01 4.077005758881568909e-02 1.018431633710861206e-01 1.037663780152797699e-02 3.730652481317520142e-02 5.259840562939643860e-02 1.670493483543395996e-01 2.140854150056838989e-01 1.859806776046752930e-01 2.052238434553146362e-01 -1.850097626447677612e-02 2.258245348930358887e-01 1.224727705121040344e-01 2.092497050762176514e-01 1.726321130990982056e-01 1.340666115283966064e-01 1.498605459928512573e-01 9.920776635408401489e-02 -5.326487589627504349e-03 1.663707941770553589e-01 1.160473078489303589e-01 -1.137218400835990906e-01 -1.852239519357681274e-01 1.154019981622695923e-01 -1.362550109624862671e-01 3.398843109607696533e-02 1.437124609947204590e-02 -1.534605026245117188e-02 1.106109395623207092e-01 -4.257972538471221924e-02 4.798598587512969971e-02 1.605051159858703613e-01 -8.599387481808662415e-03 -1.734550595283508301e-01 -1.230883449316024780e-01 -1.914426088333129883e-01 -7.601384073495864868e-02 -1.202621012926101685e-01 -7.037174701690673828e-02 1.034837663173675537e-01 7.786658406257629395e-02 -1.578345298767089844e-01 -1.063704192638397217e-01 1.785949617624282837e-01 -1.522699594497680664e-01 -2.512583509087562561e-02 9.999866783618927002e-02 -6.386793218553066254e-03 -2.038702368736267090e-02 -1.340122222900390625e-01 -9.920883923768997192e-02 8.596269786357879639e-02 -7.899376004934310913e-02 -1.556774973869323730e-01 1.021068543195724487e-01 4.072335362434387207e-02 9.533657878637313843e-02 -9.447221457958221436e-02 -2.608032226562500000e-01 -3.125368803739547729e-02 -1.471524536609649658e-01 -1.300542801618576050e-01 5.814705789089202881e-02 -2.389363497495651245e-01 -2.515367567539215088e-01 -2.052634656429290771e-01 1.936661265790462494e-02 -7.008405029773712158e-02 1.008613109588623047e-01 1.622562706470489502e-01 -2.342152297496795654e-01 -1.612243652343750000e-01 1.404649484902620316e-02 -1.510667353868484497e-01 7.438751310110092163e-02 1.344662755727767944e-01 -1.127080619335174561e-01 1.249095052480697632e-01 -1.290683001279830933e-01 -9.596438705921173096e-02 -3.704090416431427002e-02 -1.298791170120239258e-02 1.208806186914443970e-01 4.263889789581298828e-02
-1.202341914176940918e-01 3.135913237929344177e-02 -2.921367064118385315e-02 -1.629401147365570068e-01 -1.234260946512222290e-02 1.295248419046401978e-01 -6.116583570837974548e-02 -7.934763282537460327e-02 7.686249166727066040e-02 -1.103651747107505798e-01 3.296073153614997864e-02 4.331252723932266235e-02 -1.667959988117218018e-01 1.793125718832015991e-01 1.508653163909912109e-01 7.356899976730346680e-02 1.316324174404144287e-01 1.527258753776550293e-01 1.849925145506858826e-02 2.576847076416015625e-01 1.617595553398132324e-02 -4.836477339267730713e-02 -9.693225473165512085e-02 -1.303941011428833008e-01 -5.605065822601318359e-02 1.708808094263076782e-01 -1.733212172985076904e-02 -8.003880828619003296e-02 -1.324740201234817505e-01 3.611606732010841370e-02 5.618853494524955750e-02 -2.559466660022735596e-01 2.012465521693229675e-02 7.726792246103286743e-02 2.149628475308418274e-02 3.000618191435933113e-03 1.369919031858444214e-01 -5.165864899754524231e-02 -6.096327677369117737e-02 -1.530778408050537109e-01 4.477382451295852661e-02 8.084444701671600342e-02 -1.729486733675003052e-01 -3.703488409519195557e-02 2.102154195308685303e-01 -6.942947208881378174e-02 5.125099420547485352e-02 -7.448264211416244507e-02 -1.690244227647781372e-01 -1.202941536903381348e-01 -1.428256630897521973e-01 1.113918572664260864e-01 -1.163312643766403198e-01 2.584479749202728271e-02 -1.413073241710662842e-01 -1.842080056667327881e-01 -1.537069678306579590e-01 1.352604776620864868e-01 1.573828160762786865e-01 3.641954809427261353e-02 -4.314416274428367615e-02 1.179172843694686890e-01 4.539586137980222702e-03 4.258597642183303833e-02 1.372229307889938354e-01 -9.743051975965499878e-02 1.735834777355194092e-01 1.599233597517013550e-01 -1.001682579517364502e-01 4.316671192646026611e-02 3.420135378837585449e-02 1.160297170281410217e-01 6.189758330583572388e-02 1.592129468917846680e-01 8.463008701801300049e-02 -7.219130545854568481e-02 1.774363666772842407e-01 1.049441844224929810e-01 1.094156354665756226e-01 1.201350539922714233e-01 8.443658053874969482e-02 -3.153981268405914307e-02 -1.709270924329757690e-01 -1.124105975031852722e-01 5.134079232811927795e-02 -3.555217385292053223e-02 2.422263026237487793e-01 1.675470322370529175e-01 -1.576382480561733246e-02 1.816722452640533447e-01 -5.800970643758773804e-02 1.863275021314620972e-01 8.089696615934371948e-02 -1.313984841108322144e-01 2.103310450911521912e-02 3.656767308712005615e-02 -3.378987684845924377e-02 5.680740624666213989e-02 -7.196022663265466690e-03 -1.357168853282928467e-01 -5.735259037464857101e-03 -2.187620550394058228e-01 -1.248890757560729980e-01 -1.358704417943954468e-01 9.952436387538909912e-02 -5.496799945831298828e-03 -1.306792199611663818e-01 -1.699211448431015015e-01 1.527124494314193726e-01 -7.838301360607147217e-02 -1.579825133085250854e-01 5.022944509983062744e-02
-1.588176339864730835e-01 -1.066157445311546326e-01 -3.892081556841731071e-03 -3.422246873378753662e-02 -7.187288720160722733e-03 1.314338147640228271e-01 1.083313748240470886e-01 -4.772282391786575317e-02 6.481524556875228882e-02 1.112443162128329277e-03 2.080254442989826202e-02 8.611536026000976562e-02 7.845732569694519043e-02 3.472541645169258118e-02 -6.973355263471603394e-02 7.176792621612548828e-02 5.963701754808425903e-02 1.931772679090499878e-01 -1.551266610622406006e-01 -1.889169029891490936e-02 -2.701465785503387451e-02 -4.066869616508483887e-02 1.548477262258529663e-01 1.252596825361251831e-01 -1.788289844989776611e-02 1.435523778200149536e-01 5.995903909206390381e-02 1.882483810186386108e-01 -1.611262112855911255e-01 -1.524288058280944824e-01 -3.192513436079025269e-02 6.703756749629974365e-03 -5.578515678644180298e-02 -1.058427691459655762e-01 1.670468747615814209e-01 -2.239875961095094681e-03 -1.004046350717544556e-01 6.211660802364349365e-02 -5.537816137075424194e-02 1.886762380599975586e-01 -1.411011070013046265e-01 -5.730842053890228271e-02 4.225888103246688843e-02 7.071992009878158569e-02 -1.383919268846511841e-01 1.530236303806304932e-01 -2.029782347381114960e-02 3.957083448767662048e-02 1.596400290727615356e-01 1.434750705957412720e-01 -1.816246658563613892e-01 -3.632882237434387207e-02 -1.764697134494781494e-01 -7.626570016145706177e-02 1.690436750650405884e-01 -4.968795180320739746e-02 -1.003485023975372314e-01 -5.927047505974769592e-02 -8.977632969617843628e-02 1.871358454227447510e-01 -6.674838811159133911e-02 2.038868889212608337e-02 7.724460959434509277e-02 -1.052155122160911560e-01 -6.869510561227798462e-02 -1.197582632303237915e-01 -1.839458644390106201e-01 -4.427773505449295044e-02 1.374759227037429810e-01 1.674319952726364136e-01 -9.305053204298019409e-02 -1.597339063882827759e-01 -5.729722976684570312e-02 -1.848009079694747925e-01 7.989753782749176025e-02 -4.214412719011306763e-02 1.582681387662887573e-01 -3.962923586368560791e-02 1.837247163057327271e-01 -8.716887980699539185e-02 1.442202478647232056e-01 -6.943408399820327759e-02 6.833732128143310547e-03 6.871889531612396240e-02 -9.590908885002136230e-03 7.188840955495834351e-02 1.937923580408096313e-01 -1.659136265516281128e-01 1.416838467121124268e-01 1.484986841678619385e-01 3.982095047831535339e-02 8.825503289699554443e-02 -7.432878762483596802e-02 8.863867819309234619e-02 -4.565048217773437500e-02 -1.893413513898849487e-01 1.993730105459690094e-02 -1.568406671285629272e-01 6.992451846599578857e-02 -9.248933196067810059e-02 -1.816301643848419189e-01 1.134935989975929260e-01 -6.117798388004302979e-02 -8.385926485061645508e-03 -6.750056147575378418e-02 -4.462365806102752686e-02 1.191699951887130737e-01 1.130373924970626831e-01 -3.206919133663177490e-02 2.655625343322753906e-02 -9.662005305290222168e-02 9.539230167865753174e-02
1.584337502717971802e-01 6.316238641738891602e-02 -1.580536216497421265e-01 1.801856309175491333e-01 1.748244613409042358e-01 1.108199954032897949e-01 -5.056020990014076233e-02 -1.911084055900573730e-01 -2.022063881158828735e-01 6.579755246639251709e-02 -6.535530835390090942e-02 7.828488200902938843e-02 1.491072475910186768e-01 -2.691179327666759491e-02 8.843277394771575928e-02 2.028147429227828979e-01 -2.702523022890090942e-03 1.927237361669540405e-01 -7.415611296892166138e-02 2.028152197599411011e-01 1.739736646413803101e-01 -1.902215182781219482e-02 -1.477507799863815308e-01 5.921171605587005615e-02 -6.882361322641372681e-02 1.194033473730087280e-01 -8.988968282938003540e-02 -3.533264994621276855e-02 3.127663955092430115e-02 -1.288316696882247925e-01 9.120965003967285156e-02 -1.550320088863372803e-01 -2.079569399356842041e-01 -2.028196901082992554e-01 4.803566634654998779e-02 4.560827836394309998e-02 2.049967199563980103e-01 1.474398821592330933e-01 1.157065108418464661e-01 5.492835119366645813e-02 2.094166725873947144e-01 2.024528235197067261e-01 1.400100588798522949e-01 1.601005643606185913e-01 1.194012761116027832e-01 -1.170781329274177551e-01 -1.718917628750205040e-03 7.216159254312515259e-02 1.499475687742233276e-01 1.499197334051132202e-01 7.018740475177764893e-02 1.444582492113113403e-01 -3.505721688270568848e-02 6.893022358417510986e-02 -1.125289127230644226e-01 1.855880171060562134e-01 -1.367550492286682129e-01 -1.210121810436248779e-01 -2.025270760059356689e-01 -1.653837859630584717e-01 -7.149908691644668579e-02 1.154467314481735229e-01 -1.485410332679748535e-01 1.376079469919204712e-01 1.078384742140769958e-01 -7.011450827121734619e-02 1.875958144664764404e-01 3.148918226361274719e-02 2.083821035921573639e-02 -7.612121105194091797e-02 1.540327370166778564e-01 4.889591783285140991e-02 4.619242623448371887e-02 -1.231671199202537537e-01 2.212011218070983887e-01 -5.163782835006713867e-02 -6.311814486980438232e-02 1.129111796617507935e-01 3.281469643115997314e-02 7.975392043590545654e-02 -3.005433082580566406e-02 1.670394986867904663e-01 1.128084808588027954e-01 1.768840700387954712e-01 2.190672904253005981e-01 4.524544626474380493e-02 -3.113189898431301117e-02 7.420279830694198608e-02 -9.134572930634021759e-03 1.656838804483413696e-01 -6.524753570556640625e-02 5.263498052954673767e-02 2.145343273878097534e-02 -1.731803119182586670e-01 -1.560964286327362061e-01 -5.495448410511016846e-02 -9.830342605710029602e-03 -1.316505074501037598e-01 -1.513636708259582520e-01 -1.277382671833038330e-01 -1.062711924314498901e-01 3.607149794697761536e-02 1.500936895608901978e-01 -6.829421035945415497e-03 -1.479775011539459229e-01 -1.310028135776519775e-01 1.861452311277389526e-01 2.542689442634582520e-02 4.069955646991729736e-02 -1.040127128362655640e-01 1.312024742364883423e-01 2.838289737701416016e-02
2.232238650321960449e-02 -6.817415356636047363e-03 1.038954704999923706e-01 -9.717695415019989014e-02 -8.667397499084472656e-02 1.138106435537338257e-01 2.931702136993408203e-02 -7.955589145421981812e-02 7.933159172534942627e-02 3.983080387115478516e-05 -1.595480591058731079e-01 2.136673033237457275e-02 6.922765076160430908e-02 -1.031114012002944946e-01 1.190389692783355713e-02 -1.254971921443939209e-01 -1.678974181413650513e-01 -8.850053697824478149e-02 1.657951623201370239e-01 -6.005983054637908936e-02 -1.704815179109573364e-01 -1.607240438461303711e-01 -1.398072540760040283e-01 -1.738969236612319946e-01 5.341906845569610596e-02 -1.396141946315765381e-02 1.119316071271896362e-01 1.280164569616317749e-01 9.489898383617401123e-02 -2.807141840457916260e-02 3.186330199241638184e-03 1.305968612432479858e-01 1.273459941148757935e-01 -1.512684524059295654e-01 9.283612668514251709e-02 1.130636483430862427e-01 -1.801247894763946533e-02 -6.888078898191452026e-02 -1.574231833219528198e-01 5.086177587509155273e-02 -1.711113750934600830e-01 -3.831583261489868164e-02 1.599210947751998901e-01 4.502181708812713623e-02 3.789323568344116211e-02 -1.085759401321411133e-01 -4.619659483432769775e-02 3.475430607795715332e-02 7.214803993701934814e-02 -1.245847418904304504e-01 5.912800133228302002e-02 -5.876629054546356201e-02 -2.765901386737823486e-02 1.286116242408752441e-02 -1.869098395109176636e-01 -4.039771854877471924e-02 -1.525968313217163086e-01 -1.502695679664611816e-02 -7.939291745424270630e-02 1.623950153589248657e-01 -1.064060926437377930e-01 -1.461335420608520508e-01 -1.578432470560073853e-01 -6.251406669616699219e-02 -1.075286418199539185e-01 -3.368487954139709473e-02 1.742958575487136841e-01 1.266814768314361572e-02 -9.764081984758377075e-02 1.792404502630233765e-01 -1.308559775352478027e-01 1.862192898988723755e-01 6.865648925304412842e-02 9.191168844699859619e-02 -1.160820573568344116e-01 1.460153311491012573e-01 8.368904888629913330e-02 -1.177156865596771240e-01 1.000360995531082153e-01 1.274898201227188110e-01 5.269239842891693115e-02 -1.736606955528259277e-01 -9.841543436050415039e-02 1.596916168928146362e-01 -1.654574573040008545e-01 -2.027599513530731201e-02 7.156650722026824951e-02 8.565689623355865479e-02 -8.366256952285766602e-03 -9.409323334693908691e-03 2.660414576530456543e-02 -1.525792926549911499e-01 1.478212326765060425e-01 -1.539013534784317017e-01 -1.870887577533721924e-01 1.713149398565292358e-01 7.580612599849700928e-02 -1.758962273597717285e-01 -1.016093343496322632e-01 1.061548143625259399e-01 -1.638709604740142822e-01 -2.529753744602203369e-02 1.533344835042953491e-01 -1.359120309352874756e-01 5.815950036048889160e-02 -6.448179483413696289e-03 -4.468587040901184082e-02 4.844047129154205322e-02 9.532706439495086670e-02 5.387441813945770264e-02 9.126423299312591553e-02 7.940642535686492920e-02
-8.991980552673339844e-02 -8.705026656389236450e-02 1.605321615934371948e-01 -3.423960506916046143e-02 4.569306969642639160e-02 -8.864760398864746094e-02 -1.156444549560546875e-01 1.406140476465225220e-01 -9.454610198736190796e-02 8.560781925916671753e-02 -2.141445688903331757e-02 -1.613721102476119995e-01 -1.558010727167129517e-01 -1.808795779943466187e-01 3.513953089714050293e-02 -1.312583237886428833e-01 8.690079301595687866e-02 -9.564691036939620972e-02 -2.395285479724407196e-02 -5.825052782893180847e-02 8.146797120571136475e-02 -1.071270033717155457e-01 6.234405934810638428e-02 8.213539421558380127e-02 1.099776476621627808e-01 -1.099986135959625244e-01 -4.891613125801086426e-02 -7.111223042011260986e-02 -5.207145214080810547e-02 5.761872977018356323e-02 -4.172309115529060364e-02 1.469527781009674072e-01 -1.892755329608917236e-01 -6.622134894132614136e-02 -2.171444147825241089e-01 -1.987361349165439606e-02 -1.848768144845962524e-01 1.428175419569015503e-01 1.257081329822540283e-01 5.635989364236593246e-03 -1.772509068250656128e-01 7.174085825681686401e-02 1.476516127586364746e-01 -1.662232540547847748e-02 -1.897007375955581665e-01 4.771926626563072205e-02 -2.029048502445220947e-01 -5.995121225714683533e-02 -1.798512339591979980e-01 -5.567187070846557617e-02 -1.395294666290283203e-01 -1.518976688385009766e-01 1.073268204927444458e-01 8.794696629047393799e-02 1.079467684030532837e-01 1.623774021863937378e-01 -1.551750004291534424e-01 -1.579851210117340088e-01 1.668978929519653320e-01 -1.807262003421783447e-01 -1.300659626722335815e-01 2.902000583708286285e-02 2.022840678691864014e-01 -5.796607583761215210e-02 -5.470213480293750763e-03 2.293227910995483398e-01 2.534992396831512451e-01 2.060956507921218872e-01 -2.960995770990848541e-02 -9.251882880926132202e-02 2.021248638629913330e-01 6.188943609595298767e-02 1.539404317736625671e-02 -7.771623879671096802e-02 -4.301402345299720764e-02 -1.488331407308578491e-01 -1.147098913788795471e-01 -6.666222959756851196e-02 -1.234100610017776489e-01 1.504367589950561523e-02 -3.784309327602386475e-02 -1.378617435693740845e-01 -1.206040382385253906e-03 -1.755301356315612793e-01 -3.713180124759674072e-02 -2.281935885548591614e-02 1.554631292819976807e-01 1.705326884984970093e-01 -2.363615855574607849e-02 1.417952775955200195e-01 2.089167535305023193e-01 8.452047407627105713e-02 2.116632014513015747e-01 1.318653672933578491e-01 2.539168894290924072e-01 2.362971603870391846e-01 1.023075804114341736e-01 -3.646819293498992920e-02 -1.534091830253601074e-01 -1.738072931766510010e-01 2.172542661428451538e-01 -1.278370171785354614e-01 2.684986293315887451e-01 1.711581796407699585e-01 1.231142878532409668e-02 4.044273495674133301e-02 -1.176760792732238770e-01 1.820416301488876343e-01 1.015531867742538452e-01 -2.621968090534210205e-02 1.219352930784225464e-01 5.460126698017120361e-02
-1.056451871991157532e-01 1.820039749145507812e-01 1.093481667339801788e-03 -3.560728579759597778e-02 -9.577622264623641968e-02 -6.907495856285095215e-02 -4.807261750102043152e-02 2.665192820131778717e-03 5.720297992229461670e-02 1.651555448770523071e-01 -1.012144908308982849e-01 1.570995897054672241e-01 1.412878930568695068e-01 9.285511076450347900e-02 2.021420150995254517e-01 3.152965381741523743e-02 -1.189591586589813232e-01 5.159552022814750671e-02 -1.419118195772171021e-01 5.532692000269889832e-02 -7.144736498594284058e-02 -1.155486702919006348e-01 1.689161509275436401e-01 -1.490812152624130249e-01 -1.537689268589019775e-01 7.851882278919219971e-02 3.085242211818695068e-02 -8.503367751836776733e-02 -1.528578847646713257e-01 1.659612916409969330e-02 7.780329138040542603e-02 1.078138649463653564e-01 1.779906004667282104e-01 -8.219177275896072388e-02 2.029838860034942627e-01 9.135700017213821411e-02 -1.550573706626892090e-01 1.258707791566848755e-01 -8.595346659421920776e-02 -3.884865716099739075e-02 -1.421521790325641632e-02 -2.188712209463119507e-01 1.006278097629547119e-01 1.272532194852828979e-01 5.816476419568061829e-02 -2.712472714483737946e-02 1.690820604562759399e-01 1.119843423366546631e-01 1.407274454832077026e-01 -6.569603085517883301e-02 -1.136386692523956299e-01 -8.103073388338088989e-02 -1.635455936193466187e-01 1.113841086626052856e-01 1.262303143739700317e-01 -1.764908432960510254e-01 5.459632724523544312e-02 3.232305869460105896e-02 -6.513413041830062866e-02 -1.637299656867980957e-01 7.933452725410461426e-02 9.950044751167297363e-02 -1.694327443838119507e-01 -2.428479194641113281e-01 -1.304921656847000122e-01 -6.593330204486846924e-02 -2.691287733614444733e-02 4.747493937611579895e-02 3.627673909068107605e-02 -3.463476197794079781e-03 9.916663914918899536e-02 -6.187265366315841675e-02 4.505973681807518005e-02 2.060918509960174561e-01 -9.036477655172348022e-02 -4.897300899028778076e-02 1.637175232172012329e-01 -1.544709652662277222e-01 -5.638858675956726074e-02 1.118216961622238159e-01 -1.401177793741226196e-01 6.436352431774139404e-02 1.098395735025405884e-01 -2.592238783836364746e-02 5.697240307927131653e-02 -3.009556233882904053e-02 1.745892688632011414e-03 1.105315312743186951e-01 1.203427091240882874e-01 -1.712746024131774902e-01 -4.715169221162796021e-02 1.082620024681091309e-01 -3.100070357322692871e-02 -1.869261860847473145e-01 7.916248589754104614e-02 -1.216614246368408203e-02 -1.080738157033920288e-01 -3.500369191169738770e-02 1.967130973935127258e-02 -1.188823059201240540e-01 2.368486076593399048e-01 1.006000339984893799e-01 1.493658125400543213e-01 1.667212694883346558e-01 -1.652564108371734619e-02 1.888616234064102173e-01 -1.503867805004119873e-01 -1.654393821954727173e-01 -1.628927737474441528e-01 5.634641647338867188e-02 5.123332142829895020e-03 7.971046864986419678e-02
-2.469695359468460083e-02 1.320849359035491943e-01 9.095855802297592163e-02 1.205831542611122131e-01 9.944723546504974365e-02 -9.986691176891326904e-02 -1.882567629218101501e-02 4.599180817604064941e-02 1.260185241699218750e-01 -1.327283531427383423e-01 1.476526409387588501e-01 -1.953697800636291504e-01 1.780747808516025543e-02 6.293573975563049316e-02 1.513301283121109009e-01 -6.286197155714035034e-02 4.809074476361274719e-02 1.728157699108123779e-02 1.065998524427413940e-01 -7.724212855100631714e-02 -1.804465055465698242e-02 -1.673400700092315674e-01 1.142191439867019653e-01 1.306626051664352417e-01 1.606691330671310425e-01 -1.165850684046745300e-01 -1.428335309028625488e-01 1.781451553106307983e-01 -6.746094673871994019e-02 -8.885127305984497070e-02 -3.810715302824974060e-02 -4.095033183693885803e-02 -1.472911834716796875e-01 -6.238774955272674561e-02 -1.780932247638702393e-01 -1.621066778898239136e-01 4.668021574616432190e-02 1.417259424924850464e-01 -1.383697837591171265e-01 1.639952659606933594e-01 -6.412412226200103760e-02 7.786265760660171509e-02 1.106765642762184143e-01 1.464344710111618042e-01 1.108938157558441162e-01 -1.702346466481685638e-02 -1.034212037920951843e-01 -1.186619699001312256e-01 -3.313744068145751953e-02 -1.137792915105819702e-01 -1.586588621139526367e-01 -9.641338139772415161e-02 -1.603567451238632202e-01 1.249399781227111816e-02 -5.271154642105102539e-02 -4.738306999206542969e-02 3.050203807651996613e-02 5.785916745662689209e-02 -8.126772940158843994e-02 1.295873373746871948e-01 6.088994443416595459e-02 8.507648110389709473e-02 -1.189006641507148743e-01 -1.040736809372901917e-01 -1.040954291820526123e-01 1.572440415620803833e-01 -1.497423797845840454e-01 -1.893734633922576904e-01 2.426947839558124542e-02 -6.755650043487548828e-02 3.510702028870582581e-02 -1.262790895998477936e-02 8.142098784446716309e-02 1.323201060295104980e-01 -1.324952095746994019e-01 1.293596625328063965e-01 1.307751089334487915e-01 5.440711975097656250e-03 8.933514356613159180e-03 -1.193672865629196167e-01 -2.755637466907501221e-02 1.135703921318054199e-02 -1.703607141971588135e-01 -1.016086637973785400e-01 1.749069094657897949e-01 -5.353992432355880737e-02 1.376874744892120361e-01 -7.016960880719125271e-04 5.310381948947906494e-02 1.839862167835235596e-01 1.744598895311355591e-02 2.854052558541297913e-02 9.302654862403869629e-02 7.116631418466567993e-02 -2.093978673219680786e-01 1.070973426103591919e-01 -1.066682785749435425e-01 1.460095942020416260e-01 -9.603815525770187378e-02 -2.233432829380035400e-01 3.122679330408573151e-02 1.594771444797515869e-01 -6.479806452989578247e-02 -1.159317493438720703e-01 1.550652533769607544e-01 -1.869060993194580078e-01 -1.225571334362030029e-01 6.412698328495025635e-02 1.256958395242691040e-01 5.368869006633758545e-02 1.501138657331466675e-01 -1.214671209454536438e-01
-7.497759163379669189e-02 1.268632858991622925e-01 -2.136793546378612518e-02 -1.787140406668186188e-02 1.186770275235176086e-01 7.839010655879974365e-02 -8.468165248632431030e-02 4.179659113287925720e-02 -1.598311811685562134e-01 -6.978975981473922729e-02 -3.619880974292755127e-02 1.591561585664749146e-01 2.336844988167285919e-02 -6.157605350017547607e-02 1.339543377980589867e-03 1.870155334472656250e-01 2.151278033852577209e-02 5.917551368474960327e-02 5.329360067844390869e-02 -9.818037599325180054e-02 1.682670563459396362e-01 7.069949805736541748e-02 -8.708642423152923584e-02 -1.305369287729263306e-01 1.079305559396743774e-01 1.476672738790512085e-01 -1.051848679780960083e-01 -1.147182732820510864e-01 1.439286321401596069e-01 -4.468103125691413879e-02 -8.203699439764022827e-02 1.313007920980453491e-01 -9.356781095266342163e-02 1.611454039812088013e-01 -1.273907274007797241e-01 7.602065801620483398e-02 1.728186309337615967e-01 -1.071271300315856934e-01 1.621048152446746826e-01 1.527927517890930176e-01 4.579029604792594910e-02 1.673077642917633057e-01 -1.436176300048828125e-01 1.540640145540237427e-01 5.918847024440765381e-02 -1.890297085046768188e-01 2.852811291813850403e-02 -1.432619094848632812e-01 -7.625286281108856201e-02 7.932268083095550537e-02 1.393748968839645386e-01 1.804234236478805542e-01 -9.060755372047424316e-03 5.636215209960937500e-03 1.027338653802871704e-01 -8.783508837223052979e-02 -3.748573362827301025e-02 1.838318109512329102e-01 3.976731002330780029e-02 1.097730621695518494e-01 -4.020521789789199829e-02 -1.899558901786804199e-01 -1.452125906944274902e-01 -1.194613426923751831e-01 3.516846522688865662e-02 6.984382867813110352e-02 2.251933962106704712e-01 -9.158653020858764648e-02 1.359251141548156738e-01 -4.715803265571594238e-02 1.834466159343719482e-01 -5.812018737196922302e-02 1.305972188711166382e-01 -4.198354855179786682e-02 -1.158631667494773865e-01 1.127671599388122559e-01 3.307075798511505127e-02 3.067724406719207764e-02 -8.362233638763427734e-03 2.943272888660430908e-02 -4.883909225463867188e-02 -1.868941187858581543e-01 -1.727115213871002197e-01 -1.673357337713241577e-01 -9.039757400751113892e-02 -1.813209801912307739e-01 -1.562907993793487549e-01 -1.231658011674880981e-01 1.054211184382438660e-01 -1.263500303030014038e-01 -3.780910628847777843e-04 1.590438485145568848e-01 -6.222846731543540955e-02 8.976505696773529053e-02 -1.664226204156875610e-01 -6.221387162804603577e-02 5.947644263505935669e-02 -9.400197863578796387e-02 4.113784804940223694e-02 1.094424426555633545e-01 1.362255066633224487e-01 -1.009235456585884094e-01 1.098252758383750916e-01 1.837576776742935181e-01 7.637815177440643311e-02 1.194252818822860718e-01 8.691474795341491699e-03 4.165494441986083984e-02 7.382275164127349854e-02 -7.246515154838562012e-02 -1.651881933212280273e-01 -4.928162693977355957e-02
1.349144428968429565e-01 9.832876175642013550e-02 8.889786154031753540e-02 1.512886136770248413e-01 -1.188640147447586060e-01 4.769403487443923950e-02 -1.616872847080230713e-01 1.067477390170097351e-01 -2.190707474946975708e-01 7.324186712503433228e-02 -9.772364050149917603e-02 7.502887398004531860e-02 6.494891643524169922e-02 1.598106473684310913e-01 3.266605734825134277e-02 5.911119282245635986e-02 1.991448849439620972e-01 -1.042964756488800049e-01 3.184603899717330933e-02 1.058654300868511200e-02 1.092749983072280884e-01 -8.522030711174011230e-02 1.645225286483764648e-02 1.278949826955795288e-01 1.462554186582565308e-01 -1.610749512910842896e-01 -3.217466175556182861e-02 3.835813701152801514e-02 -1.506751924753189087e-01 1.086055859923362732e-01 -2.148162387311458588e-02 1.254152506589889526e-01 -1.947138225659728050e-03 -2.798822894692420959e-02 3.219986334443092346e-02 -1.265485733747482300e-01 -7.086268812417984009e-02 -1.254740804433822632e-01 -2.189054340124130249e-02 -1.205064356327056885e-02 -1.666947901248931885e-01 -1.324311047792434692e-01 -4.170197527855634689e-03 -9.689269959926605225e-02 -4.424702376127243042e-02 -9.264919161796569824e-02 -7.918751239776611328e-02 8.219071477651596069e-02 1.566263586282730103e-01 -1.039048954844474792e-01 1.780875176191329956e-01 -1.023308932781219482e-02 -8.638592809438705444e-02 1.272329688072204590e-02 1.053183227777481079e-01 1.691423803567886353e-01 1.997538805007934570e-01 6.501176208257675171e-02 1.515943706035614014e-01 -1.604499220848083496e-01 1.033661440014839172e-01 -9.060750901699066162e-02 8.396828174591064453e-02 1.293906420469284058e-01 -9.760290384292602539e-02 1.549920737743377686e-01 -3.561801090836524963e-02 -1.215424090623855591e-01 1.375193707644939423e-02 2.969861775636672974e-02 -4.132255539298057556e-02 1.474152952432632446e-01 3.672027587890625000e-02 1.461697816848754883e-01 -5.398450791835784912e-02 -9.484977275133132935e-02 3.916622698307037354e-02 -1.398483365774154663e-01 -1.276224702596664429e-01 -1.515334844589233398e-01 -1.123661696910858154e-01 -5.302558839321136475e-02 1.628671437501907349e-01 -4.764676094055175781e-03 -8.777543902397155762e-03 1.592420041561126709e-01 7.686585187911987305e-03 1.708114445209503174e-01 9.875027835369110107e-02 1.512809842824935913e-01 -3.904206678271293640e-02 1.655886322259902954e-01 -1.915457774884998798e-03 -4.897017031908035278e-02 -6.814585532993078232e-03 1.149914339184761047e-01 4.712585359811782837e-02 -1.101783066987991333e-01 -1.784300357103347778e-01 2.242097258567810059e-02 1.390193104743957520e-01 -7.780649233609437943e-03 6.902403663843870163e-03 1.741238404065370560e-03 -6.137922406196594238e-02 4.520550370216369629e-03 1.277806311845779419e-01 1.229577809572219849e-01 4.149733483791351318e-02 1.849206835031509399e-01 4.741637408733367920e-02 -9.873587638139724731e-02
4.560417309403419495e-02 1.073635071516036987e-01 -1.612135469913482666e-01 1.351818889379501343e-01 -1.705973893404006958e-01 -1.303399354219436646e-01 1.640107184648513794e-01 3.841158375144004822e-02 -1.520556211471557617e-01 1.532048881053924561e-01 7.229712605476379395e-02 9.458648413419723511e-02 -1.463317722082138062e-01 7.425623387098312378e-02 7.621148135513067245e-03 1.458651721477508545e-01 -1.729198843240737915e-01 1.247107237577438354e-01 -1.783124953508377075e-01 4.380816593766212463e-02 2.683371305465698242e-02 1.673620492219924927e-01 1.036000400781631470e-01 -9.541992098093032837e-02 1.304708272218704224e-01 1.152566224336624146e-01 -1.551168113946914673e-01 -1.169453486800193787e-01 1.199719607830047607e-01 -1.699252873659133911e-01 1.062214225530624390e-01 1.195367053151130676e-01 1.800770759582519531e-01 -6.818729639053344727e-02 -4.905823990702629089e-02 1.225627586245536804e-01 -8.922605961561203003e-02 1.429400146007537842e-01 1.412238627672195435e-01 -1.176763977855443954e-02 -5.221003666520118713e-02 6.515861302614212036e-02 -8.808291703462600708e-02 -8.141163736581802368e-02 1.389192510396242142e-02 6.798090878874063492e-03 -9.600589424371719360e-02 -5.433701351284980774e-02 1.509910374879837036e-01 1.557134538888931274e-01 1.645158976316452026e-01 6.906600296497344971e-02 1.851337403059005737e-01 1.763020008802413940e-01 8.706299960613250732e-02 -9.701520204544067383e-02 -3.180802613496780396e-02 1.228434517979621887e-01 1.163039058446884155e-01 -1.975199878215789795e-01 1.016409918665885925e-01 8.094955980777740479e-02 -1.325856000185012817e-01 -6.589855998754501343e-02 -1.814367622137069702e-01 -3.843997418880462646e-02 -1.165927574038505554e-01 -9.716881811618804932e-02 1.328744590282440186e-01 -1.013193093240261078e-02 1.286541968584060669e-01 1.898134052753448486e-01 7.020109891891479492e-02 6.357102096080780029e-02 3.646822646260261536e-02 2.090995386242866516e-02 -1.864425837993621826e-02 6.311146914958953857e-02 -1.025469228625297546e-01 1.214291006326675415e-01 -5.082744359970092773e-02 -1.286484599113464355e-01 4.582756757736206055e-02 1.290223449468612671e-01 -1.343964934349060059e-01 -1.533431559801101685e-01 6.476682424545288086e-02 -1.632898151874542236e-01 -4.746711626648902893e-02 -1.001646444201469421e-01 -1.694297492504119873e-01 -1.714375615119934082e-01 1.127488538622856140e-01 1.490211635828018188e-01 -1.892393380403518677e-01 2.999147959053516388e-02 6.681565940380096436e-02 1.611330658197402954e-01 -3.583595622330904007e-03 -4.627841990441083908e-04 9.536189585924148560e-02 1.655100435018539429e-01 -1.459175944328308105e-01 -1.201432868838310242e-01 -1.012201383709907532e-01 -1.370835155248641968e-01 -1.037726551294326782e-01 -1.870159059762954712e-01 1.595358997583389282e-01 1.068162471055984497e-01 -6.074468791484832764e-02 -1.523132771253585815e-01
-6.272798031568527222e-02 7.663631439208984375e-02 -1.435032337903976440e-01 3.724808990955352783e-02 -1.694735884666442871e-01 -4.715422540903091431e-02 1.137191280722618103e-01 9.118377417325973511e-02 -2.401689141988754272e-01 -3.663383796811103821e-02 1.081463247537612915e-01 7.540345191955566406e-03 7.479973137378692627e-02 1.444831490516662598e-01 2.073258906602859497e-01 -8.468189835548400879e-02 1.374364048242568970e-01 -1.450560539960861206e-01 6.110310554504394531e-03 -1.127785816788673401e-01 -2.980604767799377441e-03 -7.484856992959976196e-02 1.261726021766662598e-03 -8.390874415636062622e-02 -2.820064127445220947e-02 1.616717725992202759e-01 -1.411265581846237183e-01 1.481528729200363159e-01 -2.176702953875064850e-02 2.883352153003215790e-02 -1.257705986499786377e-01 -1.635834947228431702e-02 3.271421045064926147e-02 -4.727799072861671448e-02 4.037034697830677032e-03 -7.973676174879074097e-02 -1.763612404465675354e-02 1.940355598926544189e-01 2.242338806390762329e-01 -2.981111407279968262e-02 9.478154778480529785e-02 1.092927530407905579e-01 -1.214783638715744019e-01 -1.913931593298912048e-02 1.946975290775299072e-01 9.754290804266929626e-03 5.774768069386482239e-03 -3.834898024797439575e-02 -6.862117350101470947e-02 4.142850637435913086e-03 5.972920358180999756e-02 -1.335117667913436890e-01 1.040513664484024048e-01 5.496722459793090820e-02 5.079635977745056152e-02 3.727681934833526611e-02 1.607879400253295898e-01 2.775570191442966461e-02 1.939724832773208618e-01 1.869000494480133057e-01 -4.663667827844619751e-02 1.766144782304763794e-01 -1.022074837237596512e-02 9.603493660688400269e-02 1.921757357195019722e-03 -2.444512397050857544e-02 5.879997834563255310e-02 -2.072365880012512207e-01 9.304352104663848877e-02 -1.573196239769458771e-02 -7.776440586894750595e-03 -7.986640557646751404e-03 -1.192838773131370544e-01 -1.796108186244964600e-01 1.272052228450775146e-01 9.295023977756500244e-02 -1.161740645766258240e-01 3.283317387104034424e-02 5.115270614624023438e-02 -1.553070396184921265e-01 1.343563050031661987e-01 7.765866816043853760e-02 1.362902373075485229e-01 -2.404595911502838135e-02 8.590795844793319702e-02 -2.033099681138992310e-01 2.545538730919361115e-02 4.045333247631788254e-03 3.457310050725936890e-02 -1.506454646587371826e-01 -5.140925943851470947e-02 -2.059057950973510742e-01 1.456066966056823730e-01 4.613269865512847900e-02 1.119729429483413696e-01 1.640675812959671021e-01 7.289513200521469116e-02 1.306894421577453613e-01 8.305662125349044800e-02 2.306762896478176117e-02 6.385380774736404419e-02 -1.805356144905090332e-02 -7.536127418279647827e-02 2.124362997710704803e-02 -9.488090127706527710e-02 -1.289126724004745483e-01 2.643996477127075195e-02 1.120285242795944214e-01 -1.250057071447372437e-01 -1.763541400432586670e-01 1.191061884164810181e-01 1.616738587617874146e-01
-1.555331051349639893e-01 -6.658548954874277115e-03 3.782308101654052734e-02 -1.225579977035522461e-01 1.498734652996063232e-01 -1.648738235235214233e-01 -3.639937844127416611e-03 -9.170813113451004028e-02 -5.395660549402236938e-02 1.226010620594024658e-01 -1.388515532016754150e-01 -4.012911766767501831e-02 -7.651597261428833008e-02 -1.468418091535568237e-01 -1.716852486133575439e-01 -1.259238421916961670e-01 -1.765162870287895203e-02 1.301469355821609497e-01 1.796139329671859741e-01 1.049517020583152771e-01 1.702284663915634155e-01 -1.660321503877639771e-01 -1.089415326714515686e-01 7.426755130290985107e-02 -1.696184277534484863e-02 -1.019977256655693054e-01 -1.215428560972213745e-01 1.382289975881576538e-01 2.244287431240081787e-01 5.448736250400543213e-02 2.522169612348079681e-02 -2.149417102336883545e-01 -3.799485415220260620e-02 -2.106859907507896423e-02 9.240391850471496582e-02 -1.407344937324523926e-01 -4.545949399471282959e-02 -3.097930736839771271e-02 -1.266624219715595245e-02 -7.054056972265243530e-02 1.338088065385818481e-01 4.294066503643989563e-02 -3.196413069963455200e-02 2.000982165336608887e-01 -1.365834176540374756e-01 -1.240303516387939453e-01 -1.744523085653781891e-02 -2.195776626467704773e-02 -1.098557338118553162e-01 -1.829440742731094360e-01 8.753149211406707764e-02 -3.694891929626464844e-03 4.598148167133331299e-02 3.469523787498474121e-02 -1.305004358291625977e-01 1.010040789842605591e-01 2.354136556386947632e-01 1.911807507276535034e-01 8.623888716101646423e-03 5.886525288224220276e-02 4.536101967096328735e-02 -1.839384622871875763e-02 -1.074025407433509827e-01 8.529105782508850098e-02 -1.743864268064498901e-02 -6.384987384080886841e-02 5.399051308631896973e-02 -1.641002297401428223e-02 -9.591981023550033569e-02 6.863420456647872925e-02 5.903891101479530334e-02 6.210206449031829834e-02 -7.251174747943878174e-02 1.018309686332941055e-02 4.983861371874809265e-02 -6.058951467275619507e-02 -1.702226251363754272e-01 1.383398026227951050e-01 1.155074983835220337e-01 -3.681133687496185303e-02 1.591336727142333984e-02 6.078979372978210449e-02 1.808696538209915161e-01 -5.745287239551544189e-02 1.228942945599555969e-01 -9.586445242166519165e-02 1.708149015903472900e-01 -1.876248568296432495e-01 7.727265357971191406e-02 9.790927916765213013e-02 -5.288184806704521179e-02 3.617275878787040710e-02 7.214184850454330444e-02 -1.083745732903480530e-01 1.754094213247299194e-01 1.255059093236923218e-01 8.111778646707534790e-02 5.344107281416654587e-03 4.104192554950714111e-02 2.312647402286529541e-01 9.218841791152954102e-02 5.760364700108766556e-03 2.163563817739486694e-01 1.255455166101455688e-01 -2.896720170974731445e-02 -7.638983428478240967e-02 8.517332375049591064e-02 7.323266565799713135e-02 1.784229725599288940e-01 7.944373786449432373e-02 1.469532102346420288e-01 1.411989331245422363e-03
3.440137207508087158e-02 -1.522579491138458252e-01 1.018264740705490112e-01 1.045089960098266602e-02 -1.598343253135681152e-03 1.851071268320083618e-01 -8.370716124773025513e-02 1.944425702095031738e-02 -1.258609741926193237e-01 6.347544491291046143e-02 8.794583380222320557e-02 5.809466540813446045e-02 -9.079996496438980103e-02 9.963603317737579346e-02 -1.356070488691329956e-01 1.447453945875167847e-01 9.045104682445526123e-02 -8.224231749773025513e-02 -8.154456317424774170e-02 1.177467256784439087e-01 -8.488138765096664429e-02 -5.033226311206817627e-02 1.337631493806838989e-01 -1.527389287948608398e-01 5.354784429073333740e-02 -1.385042965412139893e-01 1.776676326990127563e-01 -1.826128363609313965e-02 -1.582597941160202026e-01 -9.817370772361755371e-02 -1.089376136660575867e-01 -1.525687575340270996e-01 4.113309085369110107e-02 -2.498643100261688232e-02 -9.067890048027038574e-02 1.254794746637344360e-01 4.063946008682250977e-02 -8.051943033933639526e-02 -1.682236343622207642e-01 -1.435598582029342651e-01 -8.514104783535003662e-02 6.181582808494567871e-03 1.749985665082931519e-01 1.798901110887527466e-01 -1.021722778677940369e-01 -3.501789271831512451e-02 7.842262089252471924e-02 -4.015135765075683594e-02 -7.078528404235839844e-03 -1.327839493751525879e-02 -9.484260529279708862e-02 -2.585174143314361572e-02 3.727096319198608398e-02 8.754126727581024170e-02 -8.308780938386917114e-02 1.889206916093826294e-01 -1.548821628093719482e-01 6.262317299842834473e-03 -7.861433178186416626e-02 1.192483752965927124e-01 1.303738355636596680e-02 -5.514465272426605225e-02 -1.615093052387237549e-01 5.774836242198944092e-02 -1.510519981384277344e-01 1.607864648103713989e-01 4.721519351005554199e-02 -1.547911465167999268e-01 -1.269719451665878296e-01 -1.476382315158843994e-01 -2.712658047676086426e-02 3.797668218612670898e-02 1.872233003377914429e-01 1.792716532945632935e-01 9.350229799747467041e-02 -7.375274598598480225e-02 -5.914643406867980957e-02 9.938150644302368164e-03 1.786926835775375366e-01 -5.453315377235412598e-02 1.608413457870483398e-02 9.905366599559783936e-02 -4.345691204071044922e-02 1.596213132143020630e-01 -2.728833258152008057e-02 8.103330433368682861e-02 -1.761098504066467285e-01 8.727128803730010986e-02 1.200258880853652954e-01 -1.875021159648895264e-01 -1.256736814975738525e-01 9.732626378536224365e-02 1.460906416177749634e-01 -1.333164870738983154e-01 -1.058517098426818848e-01 -1.862356960773468018e-01 -1.680909842252731323e-01 -1.376902461051940918e-01 -1.883893311023712158e-01 8.831049501895904541e-02 -1.563152372837066650e-01 -1.007754728198051453e-01 -1.230966895818710327e-01 4.475232958793640137e-02 3.577971458435058594e-02 -1.413775980472564697e-02 1.851932704448699951e-02 -1.457704901695251465e-01 -6.054310500621795654e-02 1.535534411668777466e-01 2.355632185935974121e-02 7.792572677135467529e-02
-4.094503819942474365e-02 1.828254461288452148e-01 2.484853751957416534e-02 4.642972350120544434e-02 -1.597603261470794678e-01 1.301379352807998657e-01 1.448216885328292847e-01 1.532753705978393555e-01 -1.441605538129806519e-01 1.236531063914299011e-01 1.609286218881607056e-01 7.337979227304458618e-02 1.032900810241699219e-01 9.614281356334686279e-02 -1.890247911214828491e-01 -1.004508733749389648e-01 2.559882588684558868e-02 1.832675933837890625e-01 -9.024520963430404663e-02 2.888049371540546417e-02 -8.346155285835266113e-03 3.105422854423522949e-02 1.327848434448242188e-02 1.136441677808761597e-01 -1.403929442167282104e-01 -4.929231107234954834e-02 9.713180363178253174e-02 -2.500678598880767822e-02 -1.478544175624847412e-01 -2.656865119934082031e-02 8.814922720193862915e-02 -2.084298282861709595e-01 -1.348952054977416992e-01 -6.913143396377563477e-02 -4.112048447132110596e-02 -1.616432070732116699e-01 -1.418838053941726685e-01 4.598654434084892273e-02 2.938075177371501923e-02 2.601951174437999725e-02 1.517879068851470947e-01 -1.401564925909042358e-01 2.722988650202751160e-02 7.757185399532318115e-02 -1.032525897026062012e-01 1.947830319404602051e-01 1.404860168695449829e-01 6.630124524235725403e-03 9.169618785381317139e-02 -7.355201244354248047e-02 1.687328070402145386e-01 1.585204452276229858e-01 1.728093475103378296e-01 6.662102043628692627e-02 -1.413793712854385376e-01 4.724672436714172363e-02 9.985408931970596313e-02 8.716405928134918213e-02 -1.249809414148330688e-01 3.441911190748214722e-02 -1.158091053366661072e-01 1.460872143507003784e-01 9.340293705463409424e-02 -6.001571193337440491e-02 3.995299339294433594e-03 1.878673434257507324e-01 -8.162154257297515869e-02 1.196617409586906433e-01 -5.345040187239646912e-02 -4.232641775161027908e-03 8.328609168529510498e-02 2.156764455139636993e-02 9.277480095624923706e-02 1.190934255719184875e-01 -5.933278053998947144e-02 8.150766044855117798e-02 3.264023363590240479e-02 -8.249557763338088989e-02 9.157751500606536865e-02 1.679707318544387817e-01 1.023174971342086792e-01 3.741987049579620361e-02 -5.928069353103637695e-02 -2.581277489662170410e-02 6.459347903728485107e-02 4.963682219386100769e-02 -1.205748915672302246e-01 -7.893059402704238892e-02 -1.194445267319679260e-01 -1.719942130148410797e-02 1.574518233537673950e-01 4.285995662212371826e-02 1.714749932289123535e-01 -1.150212585926055908e-01 1.688954979181289673e-01 -1.145718991756439209e-01 9.807439893484115601e-02 -1.601269841194152832e-01 -9.780535101890563965e-02 -1.705811470746994019e-01 1.269060224294662476e-01 2.677287720143795013e-02 -2.163007557392120361e-01 -1.082718223333358765e-01 1.424686759710311890e-01 1.764895468950271606e-01 -1.508481651544570923e-01 1.866349428892135620e-01 -1.015759035944938660e-01 -9.275805205106735229e-02 6.677104532718658447e-02 1.081602424383163452e-01
-1.405716687440872192e-01 -3.286853432655334473e-02 -2.090834453701972961e-02 2.195412069559097290e-01 1.960898041725158691e-01 1.182804107666015625e-01 1.443296484649181366e-02 8.699693530797958374e-02 -2.175579965114593506e-01 1.737376488745212555e-02 3.764956071972846985e-02 -1.295559704303741455e-01 -3.422254696488380432e-02 -5.824050307273864746e-02 -2.472413890063762665e-02 5.959245376288890839e-03 2.532998919486999512e-01 1.043789163231849670e-01 -3.133131563663482666e-02 1.498256716877222061e-02 -3.643780946731567383e-04 -1.711153835058212280e-01 5.771732330322265625e-02 -9.943651407957077026e-02 -4.698292911052703857e-02 -2.024531364440917969e-02 -3.836715221405029297e-02 -2.867464721202850342e-02 -1.570886075496673584e-01 -5.628042295575141907e-02 1.149292588233947754e-01 9.458032250404357910e-02 -1.615330725908279419e-01 -1.462834477424621582e-01 1.153437271714210510e-01 -1.552178412675857544e-01 -3.197067603468894958e-02 -1.353149488568305969e-02 1.602255105972290039e-01 -6.493628025054931641e-02 -6.276848167181015015e-02 -9.614436328411102295e-02 1.171747148036956787e-01 5.354075692594051361e-03 3.249131888151168823e-02 -1.751028895378112793e-01 -5.577762052416801453e-02 -1.656315173022449017e-03 -1.225723177194595337e-01 1.576164811849594116e-01 -1.178902313113212585e-01 -1.859585046768188477e-01 7.405720651149749756e-02 -6.162099540233612061e-02 -7.693474739789962769e-02 -3.400564193725585938e-02 1.646852046251296997e-01 1.019464507699012756e-01 1.021615117788314819e-01 5.576139315962791443e-02 -1.434224545955657959e-01 -9.481165558099746704e-02 5.563790351152420044e-02 -2.016146928071975708e-01 -2.032037377357482910e-01 -1.869744807481765747e-01 -1.103000491857528687e-01 -4.990044608712196350e-02 -6.742184609174728394e-02 1.146437227725982666e-01 1.168529987335205078e-01 -2.192157087847590446e-03 -1.045599058270454407e-01 2.281242758035659790e-01 5.144993588328361511e-02 2.623988129198551178e-02 -1.045519113540649414e-01 1.611645370721817017e-01 1.304513365030288696e-01 -3.697101771831512451e-02 1.546840816736221313e-01 1.237871497869491577e-01 -1.858000904321670532e-01 2.802312374114990234e-03 4.786120727658271790e-02 -3.342375904321670532e-02 -1.021154001355171204e-01 4.860910028219223022e-02 -1.233786810189485550e-02 1.441413313150405884e-01 1.105379760265350342e-01 6.044121831655502319e-02 -1.325813531875610352e-01 -3.239595144987106323e-02 -7.601968199014663696e-02 -1.337963789701461792e-01 1.334133744239807129e-01 1.629659980535507202e-01 -1.407634615898132324e-01 1.925319805741310120e-02 2.368989139795303345e-01 1.402461528778076172e-01 -6.927476078271865845e-02 1.244079247117042542e-01 -8.760967105627059937e-02 -1.007172986865043640e-01 7.680688798427581787e-02 -6.412125378847122192e-02 -1.351338624954223633e-01 3.961488604545593262e-03 1.272427290678024292e-01 1.127122193574905396e-01
-8.242867887020111084e-02 -1.584049314260482788e-01 -3.291161730885505676e-02 8.100520074367523193e-02 7.253085821866989136e-02 -5.056207999587059021e-02 2.438328415155410767e-02 1.830215901136398315e-01 3.531867638230323792e-02 -1.118161976337432861e-01 -1.442045718431472778e-01 -1.592806726694107056e-02 1.811498589813709259e-02 1.148854643106460571e-01 1.642621494829654694e-02 3.609901666641235352e-02 -1.208350434899330139e-01 2.298109605908393860e-02 -3.417473286390304565e-02 -1.156429722905158997e-01 -1.855346113443374634e-01 -1.570965200662612915e-01 1.116373687982559204e-01 4.281376302242279053e-02 -8.113792538642883301e-02 5.369541049003601074e-02 -1.059629991650581360e-01 -1.552665382623672485e-01 4.843207076191902161e-02 -1.589017957448959351e-01 1.830620318651199341e-01 2.549280822277069092e-01 -9.116379916667938232e-02 1.711498498916625977e-01 2.007276266813278198e-01 3.392475098371505737e-02 3.798782452940940857e-02 -2.850036136806011200e-02 2.427330799400806427e-02 1.693735867738723755e-01 2.116210162639617920e-01 1.331671178340911865e-01 8.507058769464492798e-02 -9.431055933237075806e-02 1.685978919267654419e-01 1.201907917857170105e-01 -3.412028402090072632e-02 -4.441063851118087769e-02 -6.992326676845550537e-02 -6.317068636417388916e-02 1.527477800846099854e-02 -1.359018683433532715e-02 -1.016687676310539246e-01 5.059985816478729248e-02 -8.921860903501510620e-02 -1.246084421873092651e-01 1.179052963852882385e-01 2.648823149502277374e-02 -1.364829540252685547e-01 -6.331008672714233398e-02 -1.093508303165435791e-01 3.479664213955402374e-03 7.948713749647140503e-02 1.485711038112640381e-01 3.469932125881314278e-03 1.475061327219009399e-01 2.162220478057861328e-01 -2.869143208954483271e-04 2.432351857423782349e-01 -8.307286351919174194e-02 -3.464375622570514679e-03 1.758024394512176514e-01 -2.147416118532419205e-03 -9.743942320346832275e-02 -7.346519827842712402e-02 3.717520460486412048e-02 1.005370765924453735e-01 1.496759802103042603e-01 9.780780971050262451e-02 -1.348903328180313110e-01 -2.566002309322357178e-02 -3.583486378192901611e-02 -1.538471877574920654e-02 -3.841549158096313477e-03 2.267582155764102936e-02 1.327587068080902100e-01 -1.736745089292526245e-01 3.961449116468429565e-02 1.282356232404708862e-01 7.532194722443819046e-03 -8.085613697767257690e-02 -1.466642171144485474e-01 4.100531712174415588e-02 6.289556622505187988e-02 3.863022103905677795e-02 -2.448772080242633820e-02 8.225347846746444702e-02 -6.788624823093414307e-02 8.617419004440307617e-02 3.617230430245399475e-02 -2.427338659763336182e-01 -1.733783036470413208e-01 -1.347687840461730957e-01 -1.854730844497680664e-01 -1.700269430875778198e-01 -1.498110443353652954e-01 -1.564065665006637573e-01 7.176299393177032471e-02 5.207934975624084473e-02 9.823395311832427979e-02 1.810685247182846069e-01 -1.746831834316253662e-02
-1.235198006033897400e-01 -1.224317923188209534e-01 9.622146189212799072e-02 -1.597554236650466919e-01 1.638079285621643066e-01 1.855773329734802246e-01 4.822553601115942001e-03 6.031287368386983871e-03 8.999594300985336304e-02 -3.610884025692939758e-02 2.012129575014114380e-01 1.452149301767349243e-01 1.045322790741920471e-01 2.481782063841819763e-02 2.077073603868484497e-01 -1.347962319850921631e-01 -1.392266452312469482e-01 1.829979270696640015e-01 -1.174516417086124420e-02 7.264531403779983521e-02 -8.039408177137374878e-02 2.330066263675689697e-02 -6.591226160526275635e-02 1.389688402414321899e-01 -1.188314706087112427e-01 -1.170069873332977295e-01 -6.190998852252960205e-02 -1.296674311161041260e-01 -3.555985167622566223e-02 -1.625332683324813843e-01 3.908865153789520264e-02 1.313932240009307861e-01 -4.554432630538940430e-02 1.642589867115020752e-01 1.098955571651458740e-01 -4.212727025151252747e-02 5.230306088924407959e-02 2.100084535777568817e-02 -4.644424840807914734e-02 3.899227455258369446e-02 -1.344656348228454590e-01 -1.393173635005950928e-01 -1.598702222108840942e-01 -1.015368551015853882e-01 9.195046126842498779e-02 -2.575104497373104095e-02 -6.666407734155654907e-02 -9.929767996072769165e-02 9.693090617656707764e-02 -1.683522164821624756e-01 8.096022903919219971e-02 4.886832833290100098e-02 -6.889358162879943848e-02 1.286711841821670532e-01 1.844109594821929932e-02 1.857134550809860229e-01 1.624806374311447144e-01 -4.297524690628051758e-02 1.002365425229072571e-01 3.904157131910324097e-02 7.794000208377838135e-02 2.541011385619640350e-02 -1.967491116374731064e-03 2.101104408502578735e-01 6.454222649335861206e-02 -8.946985751390457153e-02 -9.769294410943984985e-02 -5.773461237549781799e-02 1.341832876205444336e-01 -4.512072727084159851e-02 -1.480831801891326904e-01 1.750975698232650757e-01 -3.748377785086631775e-02 -3.882202506065368652e-02 -8.953568339347839355e-02 2.860138192772865295e-03 -1.586772501468658447e-01 -7.186580449342727661e-02 -8.924410492181777954e-02 -8.962470293045043945e-02 -1.337655335664749146e-01 -8.829138427972793579e-02 1.324089616537094116e-01 8.958010375499725342e-02 1.250885576009750366e-01 -1.538729071617126465e-01 -9.388756006956100464e-03 -1.216814368963241577e-01 -1.107239164412021637e-02 -5.556637421250343323e-02 -1.362647712230682373e-01 9.872417896986007690e-02 -6.625546957366168499e-04 -1.175933703780174255e-01 1.129758730530738831e-01 -1.293357275426387787e-02 4.016503691673278809e-02 8.125907182693481445e-02 -1.579470783472061157e-01 -1.890921443700790405e-01 -2.296217083930969238e-01 1.991377472877502441e-01 3.834124887362122536e-03 -2.387178689241409302e-02 1.549301296472549438e-01 1.670450717210769653e-01 1.544147282838821411e-01 7.957071065902709961e-04 1.729507297277450562e-01 1.216770857572555542e-01 -8.513406664133071899e-02 1.322774589061737061e-02
1.725096702575683594e-01 2.098900638520717621e-02 -1.804558038711547852e-01 -2.007397711277008057e-01 1.104183644056320190e-01 -1.375042200088500977e-01 -8.623313158750534058e-03 -6.783607602119445801e-02 -1.384280323982238770e-01 -1.695499569177627563e-01 1.692259013652801514e-01 -1.268114000558853149e-01 7.637197524309158325e-02 1.937226653099060059e-01 -5.223400890827178955e-02 1.227321624755859375e-01 6.364784389734268188e-02 1.778035238385200500e-02 -5.770790204405784607e-02 1.406050175428390503e-01 1.263647228479385376e-01 7.772535085678100586e-03 -1.788619607686996460e-01 -1.296945959329605103e-01 -1.362202763557434082e-01 6.767587363719940186e-02 6.662942469120025635e-02 1.380398422479629517e-01 -1.145965084433555603e-01 -9.162685275077819824e-02 -8.788610249757766724e-02 -1.289310902357101440e-01 -4.569192603230476379e-02 3.733418881893157959e-02 1.347182095050811768e-01 1.541256457567214966e-01 1.462877392768859863e-01 -2.166008353233337402e-01 -1.932255178689956665e-01 5.749808624386787415e-02 -1.635090708732604980e-01 -2.987720631062984467e-02 6.003841385245323181e-02 6.330104917287826538e-02 -9.881979972124099731e-02 -1.089776605367660522e-01 -6.134341657161712646e-02 8.821939677000045776e-02 -1.724599599838256836e-01 1.632060557603836060e-01 3.187462687492370605e-02 4.136252403259277344e-02 4.886859655380249023e-02 -1.881742477416992188e-02 -1.565976887941360474e-01 1.030157357454299927e-01 3.304740786552429199e-02 -1.009560748934745789e-01 1.183028612285852432e-02 1.617841422557830811e-01 -1.542279273271560669e-01 1.510458439588546753e-01 1.107682958245277405e-01 4.570063948631286621e-02 1.425199657678604126e-01 -7.878047227859497070e-02 1.621455252170562744e-01 1.350681036710739136e-01 9.569129347801208496e-02 1.240134164690971375e-01 1.256136447191238403e-01 -1.715370267629623413e-01 2.057321071624755859e-01 -5.733912438154220581e-02 2.004104554653167725e-01 4.390665143728256226e-02 6.423588097095489502e-02 1.761882007122039795e-02 1.627762466669082642e-01 -5.654141306877136230e-03 -7.955685257911682129e-03 8.432467281818389893e-02 -6.843391805887222290e-02 -2.511830627918243408e-02 -2.910635061562061310e-02 9.263201057910919189e-02 -6.102444021962583065e-04 1.841535419225692749e-01 -1.459757089614868164e-01 -8.057438582181930542e-02 1.412038952112197876e-01 1.580135524272918701e-01 -1.526532620191574097e-01 8.111204206943511963e-02 1.413602232933044434e-01 -1.393592059612274170e-01 1.856051981449127197e-01 1.332467794418334961e-01 -9.935974329710006714e-02 -1.474337130784988403e-01 2.116095274686813354e-01 -3.971611335873603821e-02 -1.317928731441497803e-01 -1.760568656027317047e-02 2.189134061336517334e-02 -5.622431635856628418e-02 5.558045208454132080e-02 4.892140626907348633e-03 -3.258770704269409180e-02 -8.043584972620010376e-02 9.178315103054046631e-02 -1.273931860923767090e-01
1.724205315113067627e-01 2.362261712551116943e-02 1.711432039737701416e-01 -5.067978426814079285e-02 1.323646008968353271e-01 1.165435984730720520e-01 1.389311254024505615e-01 -1.510606259107589722e-01 4.430472105741500854e-02 -9.770360589027404785e-02 -4.513890668749809265e-02 -1.184214930981397629e-02 2.014181576669216156e-03 4.808448429685086012e-04 4.322878643870353699e-02 -1.120288297533988953e-01 -6.063892319798469543e-02 -4.269571602344512939e-02 5.535424873232841492e-02 -8.106439560651779175e-02 -8.066982775926589966e-02 -1.104352101683616638e-01 2.221709489822387695e-02 -6.694947183132171631e-02 -1.136204674839973450e-01 1.005648225545883179e-01 9.365503489971160889e-02 -5.893474817276000977e-02 -1.372201293706893921e-01 -1.475046873092651367e-01 -1.178836300969123840e-01 -1.612603366374969482e-01 9.542412310838699341e-02 2.971691638231277466e-02 1.357915997505187988e-01 9.429754316806793213e-02 -7.088109105825424194e-02 -1.168960928916931152e-01 1.572875231504440308e-01 4.088925942778587341e-02 -2.410609461367130280e-02 -1.229059249162673950e-01 -1.081672683358192444e-01 -6.826177984476089478e-02 -1.351334303617477417e-01 4.068831354379653931e-02 1.020253971219062805e-01 -2.967082895338535309e-02 9.788461029529571533e-02 -1.654812693595886230e-02 9.795431792736053467e-02 -6.634499132633209229e-02 1.503548473119735718e-01 -2.978165447711944580e-02 -1.572754830121994019e-01 1.658377796411514282e-01 9.175707399845123291e-02 8.357008919119834900e-03 5.323930829763412476e-02 7.181674242019653320e-02 -1.176233366131782532e-01 -1.605805903673171997e-01 -1.662269830703735352e-01 -1.735844910144805908e-01 6.649189442396163940e-02 7.310688029974699020e-03 -1.295932009816169739e-02 -1.249035671353340149e-01 2.064913958311080933e-01 4.675066843628883362e-02 -8.848235756158828735e-02 1.866967380046844482e-01 -5.034753307700157166e-02 1.627527177333831787e-01 -2.360063195228576660e-01 -1.811583489179611206e-01 1.178264468908309937e-01 3.381040692329406738e-02 1.198300272226333618e-01 4.435539245605468750e-02 -1.741645187139511108e-01 -1.007557362318038940e-01 1.418865472078323364e-01 8.674551546573638916e-02 -5.573612079024314880e-02 3.030772507190704346e-02 1.381296515464782715e-01 -1.244011148810386658e-01 -1.604080945253372192e-01 -1.670731753110885620e-01 -1.559294909238815308e-01 9.974599815905094147e-03 -9.475547075271606445e-02 1.258367747068405151e-01 1.571762412786483765e-01 2.199646383523941040e-01 9.461901150643825531e-03 -9.300861274823546410e-04 1.946381181478500366e-01 1.329581737518310547e-01 -1.175390928983688354e-01 1.391817182302474976e-01 -1.585394740104675293e-01 -3.824786096811294556e-02 7.952134311199188232e-02 -3.779874742031097412e-02 1.833742409944534302e-01 -8.047834038734436035e-03 8.664287626743316650e-02 -1.744494140148162842e-01 -1.691782921552658081e-01 -1.453492492437362671e-01
-1.314522624015808105e-01 4.125489294528961182e-02 -1.098241955041885376e-01 8.140429854393005371e-03 -1.439135074615478516e-01 -2.060675621032714844e-02 -1.788052320480346680e-01 -3.518100082874298096e-02 -6.409935653209686279e-02 1.859970390796661377e-02 2.649258077144622803e-02 6.896395981311798096e-02 6.561799347400665283e-02 -1.038037836551666260e-01 3.360711038112640381e-02 -1.525565832853317261e-01 2.552391588687896729e-02 4.299020767211914062e-02 -1.330210566520690918e-01 -1.060252711176872253e-01 1.323332041501998901e-01 -1.412968784570693970e-01 -5.011275410652160645e-03 1.243813484907150269e-01 9.852083027362823486e-02 6.553487479686737061e-02 8.741457760334014893e-02 7.167162001132965088e-02 -1.209392324090003967e-01 -1.353349536657333374e-01 1.103607267141342163e-01 -2.278837561607360840e-02 8.467461168766021729e-02 5.082479119300842285e-02 5.275587737560272217e-02 -1.394438147544860840e-01 -9.926438331604003906e-03 -1.717871278524398804e-01 7.129584252834320068e-02 -3.376765549182891846e-02 -1.441314965486526489e-01 1.600408405065536499e-01 1.369614154100418091e-01 -5.463114380836486816e-02 1.819448024034500122e-01 2.477273344993591309e-03 -1.126057356595993042e-01 -6.980233639478683472e-02 6.253205239772796631e-02 1.361381262540817261e-01 -1.071986854076385498e-01 9.059797227382659912e-02 1.723922044038772583e-01 -1.221164315938949585e-01 -1.139737069606781006e-01 -9.747311472892761230e-02 -2.447268366813659668e-02 5.429552495479583740e-02 8.836172521114349365e-02 -1.372537016868591309e-01 -8.280543237924575806e-02 7.593454420566558838e-02 -8.141115307807922363e-02 -1.007822751998901367e-01 6.639869511127471924e-02 -4.982690513134002686e-02 3.897172212600708008e-02 7.565264403820037842e-02 -3.933154046535491943e-02 -2.620783448219299316e-02 -1.391068398952484131e-01 -1.743933111429214478e-01 -1.355749666690826416e-01 -4.561197757720947266e-02 2.003885805606842041e-02 4.891920089721679688e-02 -1.888115555047988892e-01 1.811794787645339966e-01 -5.724692344665527344e-02 1.667672246694564819e-01 1.006313413381576538e-01 6.682872772216796875e-04 7.844199240207672119e-02 8.752256631851196289e-03 1.297697871923446655e-01 4.311186075210571289e-02 -1.398266255855560303e-01 -7.755558937788009644e-02 9.549151360988616943e-02 1.398460119962692261e-01 -5.305555462837219238e-02 -6.729213148355484009e-02 -2.845454216003417969e-02 8.541856706142425537e-02 -1.778540015220642090e-01 1.083150655031204224e-01 -6.965306401252746582e-02 -1.395686715841293335e-01 1.790481060743331909e-01 -1.252382397651672363e-01 -1.258477717638015747e-01 1.596203893423080444e-01 -1.696130931377410889e-01 -6.552580744028091431e-02 -9.798694401979446411e-02 -1.481055021286010742e-01 -1.094650030136108398e-01 1.618161946535110474e-01 -1.141447871923446655e-01 -3.542333841323852539e-03 -1.143975183367729187e-01 1.427370756864547729e-01
-2.730137705802917480e-01 -2.222286611795425415e-01 -1.427769958972930908e-01 -9.717782586812973022e-02 -9.388729184865951538e-02 -8.704303950071334839e-02 1.938959397375583649e-02 -2.726914286613464355e-01 -2.741236239671707153e-03 -1.539742350578308105e-01 -3.323262184858322144e-02 1.326339840888977051e-01 -2.739427797496318817e-02 -1.144915632903575897e-02 2.613352239131927490e-01 1.908053904771804810e-01 -7.955653220415115356e-02 1.609936505556106567e-01 -1.147509589791297913e-01 2.931552194058895111e-02 -1.308351159095764160e-01 -6.273940205574035645e-02 1.109582930803298950e-01 -1.797326803207397461e-01 1.569209843873977661e-01 2.520927786827087402e-02 -1.451019644737243652e-01 1.506331115961074829e-01 -1.652875095605850220e-01 -1.519933491945266724e-01 -2.666737884283065796e-03 -1.639383286237716675e-01 4.379565268754959106e-02 -1.146076545119285583e-01 -2.253500521183013916e-01 -1.329030245542526245e-01 -1.271079778671264648e-01 -1.076479479670524597e-01 -1.092869564890861511e-01 -1.790902614593505859e-01 3.620698582381010056e-03 1.300343722105026245e-01 1.665182262659072876e-01 -2.330021560192108154e-02 8.776127547025680542e-02 -1.119540333747863770e-01 -1.769222766160964966e-01 -3.284907341003417969e-02 -1.703516244888305664e-01 -6.537946313619613647e-02 1.041665673255920410e-02 1.234120875597000122e-01 -1.324556320905685425e-01 1.599609851837158203e-02 1.148092895746231079e-01 7.104130089282989502e-02 -1.616426408290863037e-01 1.360502988100051880e-01 7.890620082616806030e-02 1.372694373130798340e-01 1.830608695745468140e-01 -1.230801120400428772e-01 1.060545668005943298e-01 7.971744984388351440e-02 -1.490667555481195450e-02 -9.211598336696624756e-02 1.039826869964599609e-01 1.316526681184768677e-01 -4.761088639497756958e-02 6.639527529478073120e-02 1.894124969840049744e-02 1.273709535598754883e-01 -2.389201074838638306e-01 4.178931936621665955e-02 -1.395771503448486328e-01 -4.884825274348258972e-02 -1.422498226165771484e-01 5.782531201839447021e-02 9.981845319271087646e-02 -1.378436237573623657e-01 -7.993472367525100708e-02 -1.681271642446517944e-01 -7.562577724456787109e-03 -1.449136435985565186e-01 -1.638125330209732056e-01 -1.859006434679031372e-01 3.418216947466135025e-03 1.579314768314361572e-01 -2.154412120580673218e-02 2.088292837142944336e-01 -1.114711537957191467e-01 -5.628705769777297974e-02 -2.957808971405029297e-02 2.115535140037536621e-01 5.699322745203971863e-02 5.359986796975135803e-02 1.178558096289634705e-01 1.668800786137580872e-02 -5.241722241044044495e-02 2.302178293466567993e-01 -5.707865208387374878e-02 -1.677208766341209412e-02 -2.791788578033447266e-01 6.691579520702362061e-02 -5.001728236675262451e-02 1.292638927698135376e-01 4.949316382408142090e-03 1.806779354810714722e-01 2.140575647354125977e-02 -9.211982041597366333e-02 -1.506817340850830078e-01 7.342819869518280029e-02
1.461489498615264893e-01 -1.181416139006614685e-01 1.259532868862152100e-01 1.332827657461166382e-01 -1.629693657159805298e-01 -1.486612856388092041e-02 -6.514990818686783314e-04 -1.392036229372024536e-01 1.089774072170257568e-01 1.601862907409667969e-01 -1.910155117511749268e-01 -8.802622556686401367e-02 -5.111423879861831665e-02 2.008674144744873047e-01 8.033761405386030674e-04 1.131112352013587952e-01 -1.092706173658370972e-01 -1.129981949925422668e-01 1.660871207714080811e-01 1.903562247753143311e-01 -8.830674737691879272e-02 -9.253271669149398804e-02 -2.104561030864715576e-02 -1.776953935623168945e-01 6.283067166805267334e-02 7.686702907085418701e-02 7.304818928241729736e-02 -2.924957871437072754e-02 7.131359726190567017e-02 -3.066774830222129822e-02 5.603093281388282776e-02 6.295581907033920288e-02 -3.005476854741573334e-02 7.522813975811004639e-02 2.791423350572586060e-02 -1.264339834451675415e-01 -2.494163252413272858e-02 6.411103904247283936e-02 -1.836011558771133423e-01 -2.646012790501117706e-02 2.355001866817474365e-02 1.304947286844253540e-01 1.075693890452384949e-01 1.010142713785171509e-01 4.739408567547798157e-02 -1.670813113451004028e-01 1.224470231682062149e-02 -2.148589491844177246e-02 -3.855884075164794922e-03 1.427252590656280518e-02 3.903682529926300049e-02 -2.902221679687500000e-02 2.355222404003143311e-02 3.261901438236236572e-02 1.591209322214126587e-01 8.695125579833984375e-03 1.699847914278507233e-02 2.082037776708602905e-01 -9.721723943948745728e-02 1.023400202393531799e-01 -1.582015752792358398e-01 -1.314283609390258789e-01 9.450303763151168823e-02 8.232404291629791260e-02 1.327565759420394897e-01 -1.426599174737930298e-01 -2.675051428377628326e-02 3.273534355685114861e-03 -9.290506690740585327e-02 8.079053461551666260e-02 1.569547653198242188e-01 -1.328890323638916016e-01 -1.471922993659973145e-01 2.099571563303470612e-02 1.562831401824951172e-01 -6.343382596969604492e-02 -3.019802272319793701e-02 1.404202431440353394e-01 1.342167705297470093e-01 7.365633547306060791e-02 -1.781520545482635498e-01 -3.722445666790008545e-02 -1.690360009670257568e-01 6.228856742382049561e-02 -2.674160897731781006e-02 1.033923774957656860e-01 -1.205516681075096130e-01 -6.464862078428268433e-02 -4.507644847035408020e-02 1.978028714656829834e-01 9.847302734851837158e-02 1.068393141031265259e-01 -9.785869717597961426e-02 9.811115264892578125e-02 -1.445512194186449051e-02 -3.878464177250862122e-02 1.560371518135070801e-01 6.392545998096466064e-02 8.856286108493804932e-02 -1.111713200807571411e-01 1.493500173091888428e-01 8.411730825901031494e-02 -7.489062100648880005e-02 1.117033660411834717e-01 9.262813627719879150e-02 3.445923328399658203e-02 1.868997067213058472e-01 1.076341718435287476e-01 1.180349141359329224e-01 9.796343743801116943e-02 4.346807301044464111e-02 4.932016134262084961e-03
5.644871667027473450e-02 -1.614745706319808960e-01 1.736038625240325928e-01 -5.933409556746482849e-02 1.563499271869659424e-01 -3.099179081618785858e-02 7.609999924898147583e-02 -1.891070231795310974e-02 -1.924951076507568359e-01 -1.368729323148727417e-01 9.848706424236297607e-02 1.530308276414871216e-01 -4.329281300306320190e-02 1.605588197708129883e-01 1.518726050853729248e-01 -1.745055764913558960e-01 -9.019417315721511841e-02 2.624730765819549561e-02 -1.760717630386352539e-01 7.897573709487915039e-02 2.534976601600646973e-02 1.811674386262893677e-01 -1.366509199142456055e-01 -5.317747592926025391e-02 5.284197628498077393e-02 2.662545442581176758e-02 1.517326384782791138e-01 -1.081238836050033569e-01 -1.454180479049682617e-01 -9.590139985084533691e-02 -2.397685684263706207e-02 -5.713427904993295670e-03 -1.855319142341613770e-01 -6.018589437007904053e-02 -8.477748930454254150e-02 2.294140122830867767e-02 -8.397768437862396240e-02 2.096431404352188110e-01 -8.571001142263412476e-02 1.730161756277084351e-01 -5.012661131331697106e-05 -1.383059769868850708e-01 -1.687538772821426392e-01 7.666919380426406860e-02 2.058372646570205688e-02 -1.080111414194107056e-01 1.210662350058555603e-01 -8.768990635871887207e-02 1.720757633447647095e-01 4.626403748989105225e-02 1.695133000612258911e-01 -7.267183065414428711e-02 -3.914037346839904785e-02 -1.717059314250946045e-02 -1.229170486330986023e-01 -1.668226718902587891e-02 -1.255178302526473999e-01 -8.400505781173706055e-02 -8.372987061738967896e-02 -1.204415857791900635e-01 1.595329940319061279e-01 8.169987052679061890e-02 -2.087007649242877960e-02 1.367286145687103271e-01 1.654653698205947876e-01 9.960699826478958130e-03 -4.135364666581153870e-02 1.597762554883956909e-01 -1.606626808643341064e-01 -1.839751005172729492e-01 8.958899974822998047e-02 -1.707596927881240845e-01 -7.847245782613754272e-02 -1.918371766805648804e-01 -1.242878586053848267e-01 1.074365004897117615e-01 -1.854948699474334717e-01 -9.016558527946472168e-03 1.385299414396286011e-01 4.627367854118347168e-02 3.616575896739959717e-02 1.787696331739425659e-01 8.331759274005889893e-02 -1.458015739917755127e-01 2.032190859317779541e-01 1.951059401035308838e-01 -2.452145889401435852e-02 6.351881474256515503e-02 1.238519027829170227e-01 -1.047398820519447327e-01 -1.792946271598339081e-02 -8.234870433807373047e-02 1.958434134721755981e-01 8.268524706363677979e-02 1.561284512281417847e-01 -4.232841730117797852e-02 -1.528267860412597656e-01 5.435261875391006470e-02 1.439573336392641068e-02 -1.569053977727890015e-01 -1.382011771202087402e-01 1.280350051820278168e-02 2.099104970693588257e-02 9.482642263174057007e-02 -1.171460300683975220e-01 -9.011276066303253174e-02 -7.474093139171600342e-02 -3.085471689701080322e-02 -1.418198943138122559e-01 -4.938584566116333008e-02 4.439796507358551025e-02 4.237130284309387207e-02
3.210236132144927979e-02 -1.206335872411727905e-01 4.308287799358367920e-02 -3.719062730669975281e-02 -5.609923973679542542e-02 -5.410987138748168945e-02 2.028067260980606079e-01 -1.689580231904983521e-01 7.706455141305923462e-02 -1.059527173638343811e-01 -1.006728187203407288e-01 -1.263226270675659180e-01 -3.813504055142402649e-02 1.431004405021667480e-01 1.019731163978576660e-01 -1.239890083670616150e-01 -1.521444767713546753e-01 -1.601658463478088379e-01 -7.941792719066143036e-03 7.702175527811050415e-02 -8.066847920417785645e-03 2.774205803871154785e-02 -3.666651248931884766e-02 2.013753354549407959e-02 -1.884256899356842041e-01 1.578616350889205933e-01 -9.185136854648590088e-02 9.528230130672454834e-02 -6.796875596046447754e-02 2.351708263158798218e-01 9.572832286357879639e-02 4.779783636331558228e-02 3.586973622441291809e-02 2.248319052159786224e-02 2.473238855600357056e-03 7.851647585630416870e-02 -5.669902265071868896e-02 -1.443413943052291870e-01 -2.408557534217834473e-01 -6.386277824640274048e-02 1.550605297088623047e-01 -8.357324451208114624e-02 8.294195681810379028e-02 -6.205121427774429321e-02 6.953995674848556519e-02 1.690977513790130615e-01 8.985099941492080688e-02 1.871383041143417358e-01 -3.204521536827087402e-02 -5.429187417030334473e-02 1.431253403425216675e-01 8.154009282588958740e-02 3.787584602832794189e-02 -1.570333987474441528e-01 1.713600903749465942e-01 1.699738055467605591e-01 5.042931810021400452e-02 1.894293725490570068e-01 7.723039388656616211e-02 1.353400200605392456e-01 -1.249487232416868210e-02 8.941336721181869507e-02 2.829827927052974701e-02 2.044776678085327148e-01 7.461022585630416870e-02 -2.789065614342689514e-02 -1.967706158757209778e-02 1.224940568208694458e-01 -1.071727946400642395e-01 1.299073398113250732e-01 -2.913993969559669495e-02 9.168201684951782227e-02 -6.403294205665588379e-02 -8.097744733095169067e-02 2.681519836187362671e-02 -6.479652971029281616e-02 6.521473824977874756e-02 -1.099095344543457031e-01 -1.349721103906631470e-01 1.694269329309463501e-01 -6.245739758014678955e-02 -1.041195467114448547e-01 1.892627775669097900e-02 1.873758286237716675e-01 -9.180049598217010498e-02 7.508774846792221069e-02 6.235138326883316040e-02 -2.262925505638122559e-01 -3.038552589714527130e-02 -1.720488071441650391e-01 -1.464554220438003540e-01 1.236487030982971191e-01 -1.968086510896682739e-01 -1.595597714185714722e-01 6.094196438789367676e-02 -8.253452926874160767e-02 1.082554236054420471e-01 1.913023740053176880e-01 1.798275411128997803e-01 1.733481734991073608e-01 -6.534305214881896973e-02 -3.980264591518789530e-04 -4.206553101539611816e-02 -7.407831400632858276e-02 1.798104494810104370e-01 4.477873444557189941e-02 -1.032020077109336853e-01 -1.448839008808135986e-01 7.794518768787384033e-02 1.799490004777908325e-01 1.113310009241104126e-01 3.665387630462646484e-04
1.889649331569671631e-01 -2.132172882556915283e-02 -1.124701872467994690e-01 -1.028174981474876404e-01 -1.697471924126148224e-02 -9.567642211914062500e-02 1.054083257913589478e-01 1.570281088352203369e-01 -3.419365361332893372e-02 -6.709711998701095581e-02 -1.837940700352191925e-02 4.774508625268936157e-02 3.405775502324104309e-02 5.428713187575340271e-02 1.621975153684616089e-01 7.151371240615844727e-02 -1.605470031499862671e-01 -4.166100546717643738e-02 1.752327084541320801e-01 -1.406546235084533691e-01 -3.843688964843750000e-02 7.055069506168365479e-02 -1.486695259809494019e-01 -1.057243347167968750e-01 7.586081326007843018e-02 -1.714041531085968018e-01 -1.003446355462074280e-01 6.395207345485687256e-02 -1.088270694017410278e-01 9.262865036725997925e-02 -1.116305142641067505e-01 -1.879526488482952118e-02 -1.446813642978668213e-01 -1.616360992193222046e-01 -1.466828584671020508e-01 -7.530722022056579590e-02 2.026504129171371460e-01 1.826590858399868011e-02 7.072903215885162354e-02 4.626559559255838394e-03 -1.394202709197998047e-01 8.744391612708568573e-03 1.182056665420532227e-01 1.156401336193084717e-01 6.455634534358978271e-02 1.898429393768310547e-01 -1.256821304559707642e-01 -1.135790422558784485e-01 -1.009633988142013550e-01 1.700217574834823608e-01 -7.039465755224227905e-02 -1.455852985382080078e-01 -1.833731979131698608e-01 -7.715386152267456055e-02 7.142896950244903564e-02 2.482283115386962891e-02 3.999641910195350647e-02 1.030912026762962341e-01 -1.460795551538467407e-01 1.806129515171051025e-01 -1.416028141975402832e-01 1.714931726455688477e-01 -1.460332274436950684e-01 -1.452366858720779419e-01 7.360187917947769165e-02 3.657261654734611511e-02 1.836365312337875366e-01 -4.511575400829315186e-02 1.160500869154930115e-01 -4.260581731796264648e-02 -2.317088656127452850e-02 4.400549456477165222e-02 -9.651742875576019287e-02 1.329971998929977417e-01 -1.096681803464889526e-01 -7.683173753321170807e-03 -1.450801193714141846e-01 8.313626050949096680e-03 -1.884160041809082031e-01 -7.428878545761108398e-02 -1.325659453868865967e-02 6.811936199665069580e-02 8.272294700145721436e-02 5.678729712963104248e-02 -2.472237497568130493e-02 1.072211489081382751e-01 7.856838405132293701e-02 -1.072743982076644897e-01 5.683649331331253052e-03 4.164244979619979858e-02 1.669313907623291016e-01 2.017170935869216919e-01 7.417463697493076324e-03 1.988989412784576416e-01 1.774664968252182007e-01 8.172918856143951416e-02 -1.467808783054351807e-01 -1.837579011917114258e-01 -1.607179790735244751e-01 -1.150489524006843567e-01 -1.322241127490997314e-01 -1.654758453369140625e-01 -1.079242974519729614e-01 -2.979461848735809326e-02 -5.275718867778778076e-02 -1.062266752123832703e-01 -1.467882245779037476e-01 -3.976981341838836670e-02 -9.843467175960540771e-02 1.607642322778701782e-01 -1.608079969882965088e-01 1.722631603479385376e-01
1.361131072044372559e-01 -5.748737975955009460e-02 -8.464753627777099609e-03 5.192497279495000839e-03 -1.036393344402313232e-01 -7.309329230338335037e-03 4.572841152548789978e-02 -1.212814748287200928e-01 8.285349607467651367e-02 -1.633592993021011353e-01 8.236974477767944336e-02 -1.099611297249794006e-01 -1.521228104829788208e-01 1.363215595483779907e-01 -1.766002625226974487e-01 4.155867919325828552e-02 -7.004507631063461304e-02 -1.552203893661499023e-01 2.395185269415378571e-02 -9.537807852029800415e-02 -4.508620500564575195e-02 -7.062656432390213013e-02 -4.886639118194580078e-02 1.789695471525192261e-01 -1.323941797018051147e-01 1.865590363740921021e-01 -3.444345295429229736e-02 -1.860352903604507446e-01 5.910007283091545105e-02 2.088899910449981689e-02 7.795608043670654297e-02 -4.506274685263633728e-02 7.600759714841842651e-02 -1.824176013469696045e-01 3.964540734887123108e-02 -2.326228842139244080e-02 -5.190065130591392517e-02 1.445112526416778564e-01 6.968186795711517334e-02 -4.043981060385704041e-02 1.684906482696533203e-01 7.782661169767379761e-02 1.583297699689865112e-01 1.396681964397430420e-01 8.809581398963928223e-03 1.785944029688835144e-02 1.041263807564973831e-02 -5.286274012178182602e-03 8.513547480106353760e-02 -1.654603332281112671e-01 -8.372211456298828125e-02 -3.286412358283996582e-02 -1.105782240629196167e-01 9.636692702770233154e-02 -1.819276362657546997e-01 3.957971930503845215e-03 1.089179664850234985e-01 1.960674822330474854e-01 3.009529225528240204e-02 -2.584549412131309509e-02 3.081937320530414581e-02 -1.369621902704238892e-01 1.047765985131263733e-01 -6.269504874944686890e-02 -1.713131926953792572e-02 1.093531325459480286e-01 1.836490482091903687e-01 -1.590567231178283691e-01 -8.719897270202636719e-02 -1.505699381232261658e-02 1.150857135653495789e-01 -1.712539047002792358e-02 8.100683987140655518e-02 1.215066537261009216e-01 1.600723713636398315e-02 9.678198397159576416e-02 7.748742401599884033e-02 1.698502749204635620e-01 -4.755713045597076416e-02 -1.209749653935432434e-01 -1.678273081779479980e-03 -1.470846533775329590e-01 6.731875240802764893e-02 5.616632103919982910e-02 1.788895726203918457e-01 -2.341867424547672272e-02 1.247095782309770584e-02 1.407899707555770874e-01 9.338817745447158813e-02 1.471157819032669067e-01 2.864684350788593292e-02 -1.708738803863525391e-01 1.462464034557342529e-01 2.062290720641613007e-02 -1.326411366462707520e-01 -9.139142185449600220e-02 -1.446848362684249878e-01 3.348208963871002197e-02 -6.009428203105926514e-02 3.585956245660781860e-02 -9.122308343648910522e-02 -4.424137994647026062e-02 -5.708571895956993103e-02 1.605538725852966309e-01 -4.003086686134338379e-02 1.114125102758407593e-01 -1.531086862087249756e-02 -1.138343960046768188e-01 -1.186679154634475708e-01 -1.441472619771957397e-01 -1.265727430582046509e-01 -3.562174737453460693e-02
