2.118974775075912476e-01 -1.158952787518501282e-01 -1.042866408824920654e-01 1.145703867077827454e-01 2.549473345279693604e-01 -1.553148627281188965e-01 -2.130912542343139648e-01 -8.410730957984924316e-02 3.725535571575164795e-01 -1.905022263526916504e-01 -2.500708103179931641e-01 -8.080414496362209320e-03 1.072907149791717529e-01 -3.646699786186218262e-01 1.365432590246200562e-01 -6.942705810070037842e-02 4.026021063327789307e-02 -1.342082768678665161e-01 7.924019545316696167e-02 2.539993077516555786e-02 -5.621280521154403687e-02 3.746616840362548828e-02 1.039695367217063904e-01 1.906858384609222412e-01 2.539297342300415039e-01 1.537211537361145020e-01 -2.590671740472316742e-02 -2.759791314601898193e-01 2.266335785388946533e-01 -8.200494945049285889e-02 -1.918435245752334595e-01 -2.544950246810913086e-01 1.907472312450408936e-01 -1.254719682037830353e-02 -2.161237150430679321e-01 4.112768173217773438e-02 -2.295601963996887207e-01 -1.273991167545318604e-01 1.311798840761184692e-01 -1.062010973691940308e-01 2.114081978797912598e-01 2.745194733142852783e-01 -9.617035090923309326e-02 -1.414720416069030762e-01 -1.757468432188034058e-01 -4.029892012476921082e-02 -3.961929678916931152e-02 1.974958926439285278e-01 5.882519297301769257e-03 1.045562475919723511e-01 -1.779251396656036377e-01 6.318413466215133667e-02 3.081277012825012207e-02 1.547587066888809204e-01 2.105607092380523682e-01 1.188572496175765991e-01
-9.430509805679321289e-02 -2.549751102924346924e-01 -2.157178968191146851e-01 -1.886625587940216064e-01 1.327726840972900391e-01 -8.307519555091857910e-02 1.421186327934265137e-02 -3.224724531173706055e-02 -1.454136669635772705e-01 -1.884290575981140137e-02 2.150514423847198486e-01 1.320794224739074707e-02 9.923943877220153809e-02 1.218816041946411133e-01 1.359613835811614990e-01 -2.647929191589355469e-01 -4.622028768062591553e-02 9.779912233352661133e-02 9.949743747711181641e-02 -2.013949751853942871e-01 1.275277137756347656e-01 -1.594015508890151978e-01 -2.013769447803497314e-01 8.934792876243591309e-02 -1.544839590787887573e-01 -1.668617129325866699e-01 1.819142401218414307e-01 -1.181433349847793579e-01 1.672908663749694824e-01 2.597194015979766846e-01 1.163287162780761719e-01 1.633684337139129639e-01 -1.592037081718444824e-01 -1.691089868545532227e-01 3.102421760559082031e-05 1.861762106418609619e-01 -2.382618635892868042e-01 -2.643633782863616943e-01 -9.880767762660980225e-02 -2.180652320384979248e-02 2.586513757705688477e-03 -1.850287914276123047e-01 -6.324398517608642578e-02 -8.872690796852111816e-02 -1.009102463722229004e-01 1.569187045097351074e-01 -1.479640007019042969e-01 -2.541804015636444092e-01 -1.685677468776702881e-01 2.219197750091552734e-01 -4.352384805679321289e-02 3.565129637718200684e-02 -9.573000669479370117e-02 -2.052051723003387451e-01 1.820470690727233887e-01 2.130273878574371338e-01
-1.137832924723625183e-01 1.786890029907226562e-01 4.744470492005348206e-02 -2.093738764524459839e-01 1.640428453683853149e-01 1.683441400527954102e-01 -2.547502219676971436e-01 2.294160425662994385e-01 2.256219834089279175e-01 -2.064332515001296997e-01 2.554128766059875488e-01 6.317350082099437714e-03 -2.026068568229675293e-01 6.151969358325004578e-02 -7.737664878368377686e-02 -2.272285819053649902e-01 9.558338671922683716e-02 1.457408964633941650e-01 2.394081801176071167e-01 2.324178963899612427e-01 -2.590034008026123047e-01 -2.581323981285095215e-01 1.977394670248031616e-01 -7.770635932683944702e-02 -2.901434712111949921e-02 -1.243576332926750183e-01 -1.657703965902328491e-01 3.344521224498748779e-01 -6.006550788879394531e-02 -2.764544449746608734e-02 -4.665296152234077454e-02 1.558591425418853760e-01 3.343316540122032166e-02 -1.740142256021499634e-01 2.172049283981323242e-01 -1.664503216743469238e-01 2.245771139860153198e-01 1.913341730833053589e-01 -1.189970374107360840e-01 2.433849126100540161e-01 1.324085295200347900e-01 -1.714320033788681030e-01 -1.469931155443191528e-01 -1.359501332044601440e-01 -1.696160435676574707e-01 -2.656293660402297974e-02 2.374687492847442627e-01 -2.601772248744964600e-01 -2.211827784776687622e-01 9.342404454946517944e-02 1.558266282081604004e-01 1.009799167513847351e-01 -2.793379127979278564e-02 9.445276111364364624e-02 1.857131570577621460e-01 -5.263795703649520874e-02
-2.364552021026611328e-01 8.127893507480621338e-02 2.091232091188430786e-01 -2.181016355752944946e-01 -1.743007004261016846e-01 2.633919417858123779e-01 7.860955595970153809e-02 -7.289698719978332520e-02 2.803429067134857178e-01 2.478190213441848755e-01 1.375198513269424438e-01 -2.489822544157505035e-02 1.513892114162445068e-01 1.344158649444580078e-01 1.640867739915847778e-01 -3.762601641938090324e-03 -7.007574290037155151e-02 -2.470778971910476685e-01 -1.287027001380920410e-01 -1.934614926576614380e-01 1.566551923751831055e-01 1.437336802482604980e-01 -2.361457198858261108e-01 2.145815342664718628e-01 -1.128045693039894104e-01 -6.682559847831726074e-02 -2.674210667610168457e-01 2.193229943513870239e-01 1.432551443576812744e-01 2.186949849128723145e-01 -9.829836338758468628e-02 -2.325947582721710205e-01 7.884883135557174683e-02 -1.021417081356048584e-01 2.243476212024688721e-01 2.687779255211353302e-02 1.535374522209167480e-01 -2.645700573921203613e-01 -5.090694874525070190e-02 1.029734611511230469e-01 -2.099276632070541382e-01 2.112388052046298981e-02 7.210282236337661743e-02 2.506560385227203369e-01 1.087809503078460693e-01 -2.013848423957824707e-01 -1.215528696775436401e-01 -8.340220153331756592e-02 -9.191279113292694092e-02 7.254682481288909912e-02 2.026894092559814453e-01 3.765407204627990723e-02 1.416602432727813721e-01 2.083649188280105591e-01 2.957265637814998627e-02 -1.574168354272842407e-01
2.875318229198455811e-01 2.955635190010070801e-01 1.825970858335494995e-01 -5.126108229160308838e-02 3.247081637382507324e-01 7.459017634391784668e-02 1.226928234100341797e-01 3.805191069841384888e-02 -6.659828126430511475e-03 -1.285404711961746216e-01 5.779999494552612305e-02 -2.483154237270355225e-01 2.420458197593688965e-02 1.803904324769973755e-01 6.126153469085693359e-02 -1.530544459819793701e-01 -3.342519402503967285e-01 9.820002317428588867e-02 3.340218365192413330e-01 -1.767023354768753052e-01 -2.144422531127929688e-01 -2.108608484268188477e-01 -1.570936441421508789e-01 -2.988015711307525635e-01 2.021795809268951416e-01 -7.739980518817901611e-02 2.294181585311889648e-01 2.509505152702331543e-01 1.771032512187957764e-01 -4.329623654484748840e-02 1.497045010328292847e-01 -2.867923378944396973e-01 -1.295396834611892700e-01 -1.607089936733245850e-01 -9.512335062026977539e-02 -2.663874626159667969e-01 4.440184682607650757e-02 -5.232257395982742310e-02 -3.602459728717803955e-01 2.146542072296142578e-01 1.177073121070861816e-01 1.428087800741195679e-01 -1.119125559926033020e-01 1.397328972816467285e-01 1.719351559877395630e-01 -5.879750847816467285e-02 -1.863019764423370361e-01 7.740258425474166870e-02 5.949955806136131287e-02 -1.967108547687530518e-01 1.651621460914611816e-01 2.161966264247894287e-01 9.258389472961425781e-02 -6.010738015174865723e-02 -3.288449943065643311e-01 1.172941923141479492e-01
-1.761363446712493896e-01 2.444753348827362061e-01 2.684015035629272461e-02 -7.297236472368240356e-02 -2.243257611989974976e-01 -1.922840178012847900e-01 -2.509064078330993652e-01 -1.668239235877990723e-01 -9.413552284240722656e-02 -2.769370004534721375e-02 -6.240384280681610107e-02 -1.144236177206039429e-01 2.305431962013244629e-01 1.760796904563903809e-01 -1.309507489204406738e-01 2.374618351459503174e-01 -8.645150810480117798e-02 -5.769778788089752197e-02 -1.103352308273315430e-01 -1.079662442207336426e-01 1.744727790355682373e-02 -1.798039674758911133e-02 2.475103288888931274e-01 8.037982136011123657e-02 -2.228553146123886108e-01 7.941722869873046875e-02 3.349656984210014343e-02 1.088807135820388794e-01 -1.320350617170333862e-01 2.521599233150482178e-01 1.323575973510742188e-01 1.028654277324676514e-01 2.271377891302108765e-01 -2.309539616107940674e-01 -8.570887148380279541e-02 -5.579385161399841309e-02 2.457949221134185791e-01 2.568370997905731201e-01 1.289896965026855469e-01 -1.903167366981506348e-01 1.858723163604736328e-01 -5.435797572135925293e-02 -2.461418509483337402e-02 9.792022407054901123e-02 -2.192834317684173584e-01 -2.102504670619964600e-01 -5.173888802528381348e-02 -1.495167911052703857e-01 -2.732130885124206543e-02 1.072834134101867676e-01 2.200603485107421875e-02 -2.424020767211914062e-01 -1.030528992414474487e-01 -1.437594890594482422e-01 -6.800808012485504150e-02 8.859538286924362183e-02
-1.292349547147750854e-01 1.552939116954803467e-01 2.488839440047740936e-02 -1.103688850998878479e-01 1.420102268457412720e-01 -1.566466689109802246e-02 -1.718412935733795166e-01 -4.767200443893671036e-03 -3.134507685899734497e-02 -1.226447746157646179e-01 3.839686512947082520e-02 -7.158019579946994781e-03 2.527119815349578857e-01 6.723696738481521606e-02 -5.249381065368652344e-03 -1.621115654706954956e-01 -9.912064298987388611e-03 1.209220737218856812e-01 1.977977156639099121e-02 -2.407552003860473633e-01 -2.751885652542114258e-01 1.237812340259552002e-01 1.507994681596755981e-01 -1.520709991455078125e-01 5.940171331167221069e-02 -2.193409204483032227e-01 1.643942594528198242e-01 2.027673125267028809e-01 6.425273418426513672e-02 -2.356263995170593262e-01 -1.010176911950111389e-01 5.150043591856956482e-02 -1.640737056732177734e-01 -1.335282176733016968e-01 -6.175638735294342041e-02 -2.262882888317108154e-01 4.464911669492721558e-02 2.833616733551025391e-02 1.213780045509338379e-01 -1.616165488958358765e-01 -1.218675822019577026e-01 -7.566726207733154297e-02 -2.086294442415237427e-01 -1.135767176747322083e-01 1.926767230033874512e-01 -8.301117271184921265e-02 9.134449809789657593e-02 2.398835271596908569e-01 2.294091433286666870e-01 -1.872336417436599731e-01 5.688803642988204956e-02 2.491648197174072266e-01 2.323211133480072021e-01 -6.046544015407562256e-02 -6.406908854842185974e-03 -2.630936205387115479e-01
-8.675199002027511597e-02 -1.649038195610046387e-01 -2.119652926921844482e-02 -4.772497341036796570e-02 -2.262343168258666992e-01 3.325790166854858398e-02 2.511776387691497803e-01 2.071197330951690674e-01 1.825168728828430176e-02 -1.510809808969497681e-01 9.662365913391113281e-02 8.678548783063888550e-02 -2.319423556327819824e-01 5.723943188786506653e-02 -9.987415373325347900e-02 -1.912847012281417847e-01 -2.048895880579948425e-02 -6.205139309167861938e-02 -2.205579131841659546e-01 1.163642108440399170e-01 9.696520864963531494e-02 -2.298623323440551758e-03 -1.258678268641233444e-02 -1.153178066015243530e-01 -3.300940245389938354e-02 -7.358665764331817627e-02 1.041748002171516418e-01 2.175026535987854004e-01 2.575041949748992920e-01 2.311131358146667480e-02 -6.027059257030487061e-02 -1.260634213685989380e-01 -1.108005493879318237e-01 -2.666962444782257080e-01 -1.820760220289230347e-01 -6.139703094959259033e-02 7.255891710519790649e-02 8.364548534154891968e-02 -3.408825397491455078e-02 -2.160875201225280762e-01 9.369453787803649902e-02 2.434040606021881104e-01 -1.313705742359161377e-01 1.697277575731277466e-01 -1.681094467639923096e-01 2.292532175779342651e-01 5.192738771438598633e-02 9.503016620874404907e-02 1.832244545221328735e-01 -1.931324601173400879e-01 -1.457160115242004395e-01 -1.431134343147277832e-01 1.665934920310974121e-02 9.779768437147140503e-02 3.110155463218688965e-02 1.351919174194335938e-01
3.470934927463531494e-02 1.188869699835777283e-01 1.369516402482986450e-01 2.761184573173522949e-01 2.197468429803848267e-01 -2.088605463504791260e-01 -4.646031558513641357e-02 -2.159462571144104004e-01 1.559145152568817139e-01 -6.627602130174636841e-02 4.629875719547271729e-02 -2.181513011455535889e-01 -2.303130328655242920e-01 1.922397017478942871e-01 3.330973982810974121e-01 1.727584749460220337e-01 8.869516104459762573e-02 -2.793486416339874268e-01 1.507595032453536987e-01 -6.464341282844543457e-02 -2.577786445617675781e-01 -1.869318634271621704e-01 -2.713803648948669434e-01 4.987265169620513916e-02 1.165818125009536743e-01 2.034964561462402344e-01 -2.509828656911849976e-02 -1.012530326843261719e-01 -1.125671267509460449e-01 -2.449728399515151978e-01 -2.437086701393127441e-01 6.145474687218666077e-02 -6.660978496074676514e-02 6.181959807872772217e-02 -1.516979634761810303e-01 1.513431668281555176e-01 1.365674585103988647e-01 -2.358674854040145874e-01 1.168331280350685120e-01 -1.399198770523071289e-01 1.814681291580200195e-01 -1.792576164007186890e-01 1.952831298112869263e-01 1.163652315735816956e-01 -2.626744285225868225e-02 8.370178192853927612e-02 1.509880572557449341e-01 -5.507447570562362671e-02 -1.438603848218917847e-01 -4.598556086421012878e-02 1.810798048973083496e-01 -2.772108614444732666e-01 -2.334797382354736328e-02 9.962902963161468506e-02 1.322649717330932617e-01 -1.534952521324157715e-01
-1.905927211046218872e-01 -3.479570746421813965e-01 1.324715018272399902e-01 -9.615062922239303589e-02 -3.019915893673896790e-03 -2.063623368740081787e-01 -1.574714630842208862e-01 -1.872180998325347900e-01 -6.012829020619392395e-02 1.801910549402236938e-01 1.718485355377197266e-01 -1.578496992588043213e-01 -6.853640079498291016e-04 -1.647874116897583008e-01 5.257054790854454041e-02 1.344315260648727417e-01 1.903386712074279785e-01 3.046387135982513428e-01 -1.248195245862007141e-01 2.071385085582733154e-01 7.189847528934478760e-02 -1.430113017559051514e-01 1.486568301916122437e-01 1.188960745930671692e-01 -1.413515359163284302e-01 2.427741289138793945e-01 2.724756598472595215e-01 2.066580951213836670e-01 1.697486042976379395e-01 5.988615006208419800e-02 -3.489769622683525085e-02 8.902520872652530670e-03 6.246899813413619995e-02 1.263038814067840576e-01 3.143261745572090149e-02 7.424992322921752930e-02 -1.164288371801376343e-01 -1.665815263986587524e-01 2.362722158432006836e-01 -1.181838810443878174e-01 2.287626266479492188e-02 1.161687821149826050e-02 -6.792487949132919312e-02 2.881731390953063965e-01 -1.529507935047149658e-01 2.198711335659027100e-01 -1.979222893714904785e-01 -3.019358217716217041e-01 -1.200589239597320557e-01 8.930278569459915161e-02 3.511854112148284912e-01 4.265347495675086975e-02 -2.451132237911224365e-02 -2.582363784313201904e-01 -4.204129800200462341e-02 1.798613667488098145e-01
-2.423449009656906128e-01 -7.888635247945785522e-02 -1.921006292104721069e-01 1.761780083179473877e-01 -6.144522689282894135e-03 -1.853412091732025146e-01 -8.954253047704696655e-03 -1.393421888351440430e-01 9.853699058294296265e-02 -1.110736057162284851e-01 1.780086457729339600e-01 9.440033882856369019e-02 1.754511594772338867e-01 2.964582741260528564e-01 8.677230775356292725e-02 -3.530963882803916931e-02 1.443452239036560059e-01 -1.341928243637084961e-01 6.323720794171094894e-03 -1.378380656242370605e-01 9.316963702440261841e-02 1.923478841781616211e-01 1.344849020242691040e-01 1.942198425531387329e-01 1.587089747190475464e-01 -2.643801569938659668e-01 4.791919514536857605e-02 1.151284086517989635e-03 -9.133969247341156006e-02 9.693858772516250610e-02 7.956039160490036011e-02 -2.113565802574157715e-01 4.543849080801010132e-02 -1.438853740692138672e-01 2.527810633182525635e-01 -2.310251891613006592e-01 -1.092194914817810059e-01 -1.852041333913803101e-01 -4.391508921980857849e-02 -1.963641941547393799e-01 -3.820450603961944580e-02 1.527486592531204224e-01 -7.242573797702789307e-02 1.230136081576347351e-01 2.547945082187652588e-01 -2.100185751914978027e-01 1.765939593315124512e-01 -1.159902215003967285e-01 -5.785927921533584595e-02 2.142001986503601074e-01 2.420277744531631470e-01 1.722693592309951782e-01 8.479487895965576172e-02 1.877898871898651123e-01 2.070658504962921143e-01 3.182005882263183594e-02
1.849669963121414185e-01 -2.940104901790618896e-01 1.820221841335296631e-01 -2.582297027111053467e-01 -2.453915476799011230e-01 1.540777981281280518e-01 1.931437551975250244e-01 -2.366431355476379395e-01 2.416665405035018921e-01 1.507512927055358887e-01 1.142840459942817688e-01 1.697395145893096924e-01 -5.513358116149902344e-02 1.238448098301887512e-01 -3.558054268360137939e-01 1.754661351442337036e-01 -2.131183147430419922e-01 2.489289939403533936e-01 7.794560492038726807e-02 -1.239109337329864502e-01 -9.248517453670501709e-02 4.843869805335998535e-02 1.110911890864372253e-01 7.306452095508575439e-02 2.569764256477355957e-01 1.043162941932678223e-01 -5.203361506573855877e-04 -1.044931262731552124e-01 9.833180904388427734e-02 -1.159586086869239807e-01 1.927704215049743652e-01 3.680352866649627686e-02 -1.193877682089805603e-01 -1.727883368730545044e-01 2.117909491062164307e-01 1.644202172756195068e-01 -2.276561856269836426e-01 1.570075750350952148e-01 2.460838705301284790e-01 1.694885492324829102e-01 2.460359036922454834e-01 -1.816554069519042969e-01 -4.459097608923912048e-02 -2.204699367284774780e-01 -2.358047664165496826e-01 1.460709273815155029e-01 7.033407688140869141e-02 5.332624912261962891e-02 -1.442642211914062500e-01 4.831290617585182190e-02 1.328011602163314819e-01 1.459416896104812622e-01 -1.271232068538665771e-01 -5.380664393305778503e-02 4.363691061735153198e-02 1.054982841014862061e-02
3.272462263703346252e-02 -1.607092320919036865e-01 -1.537977755069732666e-01 1.627938449382781982e-01 1.700726598501205444e-01 -2.552942931652069092e-02 -1.254356503486633301e-01 2.964823842048645020e-01 -4.923513624817132950e-03 1.769821941852569580e-01 1.573394984006881714e-01 -2.600935660302639008e-02 4.146054387092590332e-02 -1.274729967117309570e-01 -7.725197076797485352e-02 2.047725319862365723e-01 1.533791422843933105e-01 -2.530621886253356934e-01 3.627195954322814941e-02 -1.871887743473052979e-01 -1.245318725705146790e-01 -1.200295090675354004e-01 2.936690300703048706e-02 3.050589859485626221e-01 1.545914262533187866e-01 -2.516131401062011719e-01 -1.479107439517974854e-01 -1.133634373545646667e-01 1.683464646339416504e-02 -2.076379358768463135e-01 -1.610402166843414307e-01 7.383562624454498291e-02 -2.109813839197158813e-01 1.797912716865539551e-01 -1.069583967328071594e-01 2.055675685405731201e-01 3.885226547718048096e-01 1.355590820312500000e-01 -1.319980323314666748e-01 -1.669124811887741089e-01 -2.410972714424133301e-01 2.816653251647949219e-01 -2.049377560615539551e-01 6.912370026111602783e-02 -1.681820303201675415e-01 8.014672249555587769e-02 -2.435576915740966797e-01 -9.441193938255310059e-02 2.141190916299819946e-01 4.340592771768569946e-02 5.713476985692977905e-02 2.799725234508514404e-01 1.582951843738555908e-01 1.063236966729164124e-01 2.540193796157836914e-01 6.457404047250747681e-02
-2.352109402418136597e-01 -1.609801203012466431e-01 -3.395701944828033447e-01 4.226879775524139404e-02 2.078119665384292603e-01 -6.193079054355621338e-02 -2.077074050903320312e-01 -1.818637996912002563e-01 -1.875113882124423981e-02 1.588878482580184937e-01 -2.602157592773437500e-01 -7.540261745452880859e-02 -2.238211184740066528e-01 1.207958012819290161e-01 -7.205943018198013306e-02 2.197918295860290527e-01 -3.139833509922027588e-01 2.997539341449737549e-01 1.750821946188807487e-03 -1.541987210512161255e-01 -1.615654975175857544e-01 4.467076063156127930e-02 -1.379536390304565430e-01 6.989976018667221069e-02 -2.850705683231353760e-01 1.992396563291549683e-01 -1.867927908897399902e-01 1.514070332050323486e-01 1.155902743339538574e-01 -2.199044078588485718e-01 -1.809323132038116455e-01 2.334555536508560181e-01 -7.640860509127378464e-03 -2.424066960811614990e-01 -2.062732726335525513e-01 -3.080650568008422852e-01 -2.170390337705612183e-01 -1.185154691338539124e-01 -8.547807484865188599e-02 -2.937258183956146240e-01 1.152130961418151855e-01 -1.544933021068572998e-02 -1.099666431546211243e-01 2.096139341592788696e-01 1.851273328065872192e-01 8.391662687063217163e-02 2.484474889934062958e-02 2.570586651563644409e-02 7.013056427240371704e-02 1.279863715171813965e-01 -2.470551282167434692e-01 -2.663734257221221924e-01 -6.917785108089447021e-02 -1.430514007806777954e-01 -2.129712700843811035e-01 -9.013264626264572144e-02
-2.403476387262344360e-01 -2.678096890449523926e-01 3.498169481754302979e-01 2.352874726057052612e-01 -4.274693876504898071e-02 2.491883933544158936e-01 1.906509744003415108e-03 4.971094429492950439e-02 -2.848323583602905273e-01 1.973042935132980347e-01 -1.498201042413711548e-01 7.295387983322143555e-02 -1.341784894466400146e-01 -2.410705946385860443e-02 -3.101752512156963348e-02 1.960251778364181519e-01 -4.819038324058055878e-03 -5.102515593171119690e-02 1.545841842889785767e-01 -6.549235433340072632e-02 -1.894429475069046021e-01 -1.678764522075653076e-01 2.283975630998611450e-01 4.844157770276069641e-02 2.827141582965850830e-01 -1.522468179464340210e-01 1.297055184841156006e-01 7.615344971418380737e-02 1.904866099357604980e-01 1.016099154949188232e-01 -4.861205443739891052e-02 2.528544366359710693e-01 -2.098350524902343750e-01 1.099921986460685730e-01 1.068976223468780518e-01 7.297002524137496948e-02 -2.789793908596038818e-02 -1.612546592950820923e-01 1.096113324165344238e-01 2.154689431190490723e-01 -1.010418236255645752e-01 -2.854253947734832764e-01 -1.731204688549041748e-01 9.310586005449295044e-02 2.165769040584564209e-01 2.429864406585693359e-01 -2.288103997707366943e-01 -6.512405723333358765e-02 -2.605743706226348877e-01 -3.906986117362976074e-02 1.934297978878021240e-01 -3.915594890713691711e-02 4.363191127777099609e-02 -1.114245057106018066e-01 -1.732491105794906616e-01 2.614622712135314941e-01
-1.126544363796710968e-02 -3.262194618582725525e-02 1.777842044830322266e-01 8.440650999546051025e-02 1.478224247694015503e-01 1.974153518676757812e-01 2.000695765018463135e-01 -1.679445803165435791e-01 1.332015544176101685e-01 2.468217164278030396e-01 -4.589430056512355804e-03 -2.131825685501098633e-02 2.415290474891662598e-02 -2.128973230719566345e-02 1.075930073857307434e-01 1.810352504253387451e-01 2.088709324598312378e-01 -2.828103303909301758e-01 -1.120016574859619141e-01 1.586856245994567871e-01 2.328897863626480103e-01 2.494639158248901367e-02 -2.567515075206756592e-01 -1.356354057788848877e-01 1.527792960405349731e-02 3.959431126713752747e-02 1.040846928954124451e-01 7.264637947082519531e-02 2.372653186321258545e-01 2.191087603569030762e-01 -1.105447113513946533e-01 1.943861246109008789e-01 -4.556103143841028214e-03 -1.978412419557571411e-01 -1.061442345380783081e-01 -1.983888000249862671e-01 -2.324121445417404175e-02 9.025309979915618896e-02 -2.334267795085906982e-01 1.457681041210889816e-02 -2.551898360252380371e-02 2.356673479080200195e-01 -2.604993581771850586e-01 -2.490685433149337769e-01 1.688172668218612671e-01 2.045305073261260986e-01 1.861456036567687988e-01 1.322821080684661865e-01 1.505157500505447388e-01 -6.774622946977615356e-02 -2.100710868835449219e-01 -7.274468243122100830e-02 -2.019971311092376709e-01 -2.711955308914184570e-01 4.119586944580078125e-01 -1.542021185159683228e-01
-1.139972433447837830e-01 -1.693948358297348022e-01 4.034908860921859741e-02 -2.736415863037109375e-01 1.047084946185350418e-02 2.563803493976593018e-01 -3.454093262553215027e-02 2.550695240497589111e-01 2.259148657321929932e-02 2.164992541074752808e-01 1.279130876064300537e-01 1.256318390369415283e-01 -1.278370022773742676e-01 3.347862958908081055e-01 1.085612401366233826e-01 -9.249993413686752319e-02 -2.952397763729095459e-01 -1.175226569175720215e-01 -6.653504818677902222e-02 -1.290325373411178589e-01 -7.578643411397933960e-02 5.356517434120178223e-02 2.146664708852767944e-01 2.971509397029876709e-01 3.833829611539840698e-02 1.620287746191024780e-01 -1.223701685667037964e-01 -6.762118078768253326e-03 8.671790361404418945e-03 -1.239135786890983582e-01 1.813889890909194946e-01 1.364167034626007080e-01 4.004465590696781874e-04 1.757206022739410400e-02 1.666748672723770142e-01 -1.465038061141967773e-01 2.283666133880615234e-01 -2.969265282154083252e-01 -1.094527468085289001e-01 1.370816305279731750e-02 2.379655539989471436e-01 1.335806846618652344e-01 1.295087337493896484e-01 -2.759006917476654053e-01 -1.447689980268478394e-01 -7.450751215219497681e-02 -1.774282753467559814e-01 2.363527864217758179e-01 2.462342828512191772e-01 -1.628737524151802063e-02 2.846998274326324463e-01 1.194207668304443359e-01 -1.487538665533065796e-01 8.973211050033569336e-02 -2.786504328250885010e-01 -1.270799785852432251e-01
1.542970836162567139e-01 -2.229042947292327881e-01 9.040372073650360107e-02 1.147820055484771729e-01 9.486449509859085083e-02 -6.539110839366912842e-02 2.020283341407775879e-01 8.786650002002716064e-02 -1.935043185949325562e-01 2.558474540710449219e-01 2.040869146585464478e-01 -5.097319930791854858e-02 -2.104248106479644775e-01 -1.814444214105606079e-01 3.324265182018280029e-01 -2.435929179191589355e-01 -2.194968461990356445e-01 -1.943991482257843018e-01 2.101613730192184448e-01 -8.443924784660339355e-02 -1.158013641834259033e-01 -1.269336491823196411e-01 3.731580823659896851e-02 3.934384137392044067e-02 -4.488232359290122986e-02 -1.193723529577255249e-01 1.752374470233917236e-01 2.987408936023712158e-01 1.788049936294555664e-03 -2.120227068662643433e-01 1.361115723848342896e-01 1.959980279207229614e-01 2.942154109477996826e-01 -1.014663875102996826e-01 -3.023856282234191895e-01 1.552619338035583496e-01 -9.325595945119857788e-02 -1.327854543924331665e-01 -1.056974753737449646e-01 -1.314182858914136887e-02 1.545381844043731689e-01 -1.679743230342864990e-01 -1.155882626771926880e-01 5.636642128229141235e-02 5.017032474279403687e-02 1.113313362002372742e-01 2.331623136997222900e-01 -2.340768724679946899e-01 1.919174939393997192e-01 2.725294232368469238e-01 -2.655957937240600586e-01 2.520629465579986572e-01 -4.550184309482574463e-02 5.789340287446975708e-02 -3.033559024333953857e-02 1.008670404553413391e-01
8.998621255159378052e-02 -2.349507361650466919e-01 1.814181655645370483e-01 8.206579089164733887e-02 -2.031704187393188477e-01 8.821773529052734375e-02 2.009980976581573486e-01 -1.295009404420852661e-01 -3.260862529277801514e-01 2.623566193506121635e-03 -2.012755423784255981e-01 -1.677290201187133789e-01 2.295016944408416748e-01 3.371092677116394043e-01 -8.100298047065734863e-02 -1.244305074214935303e-01 -1.914844810962677002e-01 1.882406175136566162e-01 1.912654936313629150e-01 -1.477697864174842834e-02 1.616554707288742065e-01 -4.521422088146209717e-02 1.533640325069427490e-01 -1.222353652119636536e-01 -2.104749679565429688e-01 -1.984451264142990112e-01 1.029789447784423828e-01 -9.767270833253860474e-02 1.793158054351806641e-02 3.239216208457946777e-01 2.687336206436157227e-01 1.698655448853969574e-02 -3.187276422977447510e-01 -1.234546769410371780e-02 2.557383477687835693e-01 2.362698018550872803e-01 -1.485438197851181030e-01 -7.561541348695755005e-02 1.360317915678024292e-01 1.861597597599029541e-01 3.794860839843750000e-02 1.440801173448562622e-01 2.532636225223541260e-01 -2.345924526453018188e-01 1.711890250444412231e-01 2.542188167572021484e-01 -9.634434431791305542e-02 6.340394169092178345e-02 1.852269172668457031e-01 -2.551798708736896515e-02 2.486754804849624634e-01 -1.183825358748435974e-01 -2.193682938814163208e-01 -1.958018392324447632e-01 -4.506923630833625793e-02 7.936777174472808838e-02
-1.562675274908542633e-02 -1.417175680398941040e-01 1.086055338382720947e-01 1.048083901405334473e-01 -2.540680468082427979e-01 -1.649159491062164307e-01 7.790648937225341797e-02 1.015670597553253174e-01 -1.641232073307037354e-01 -2.545729875564575195e-01 3.356115426868200302e-03 2.087274193763732910e-01 2.494248449802398682e-01 -9.931182116270065308e-02 3.054216504096984863e-01 9.432233124971389771e-02 -2.011510878801345825e-01 9.632677584886550903e-02 -9.866639971733093262e-02 2.571482062339782715e-01 -7.202831096947193146e-03 -1.279037743806838989e-01 -9.752209484577178955e-02 9.084942936897277832e-02 -6.631340086460113525e-02 5.369917303323745728e-02 1.200323626399040222e-01 -2.613754868507385254e-01 2.155680358409881592e-01 -3.241929411888122559e-02 -1.978709846735000610e-01 -2.814256846904754639e-01 1.445412188768386841e-01 -3.005068302154541016e-01 -1.962302923202514648e-01 3.179109096527099609e-02 -7.891409099102020264e-02 2.963381633162498474e-02 -1.669242382049560547e-01 6.787482649087905884e-02 -4.215210676193237305e-03 2.327393889427185059e-01 -1.309990584850311279e-01 2.058508843183517456e-01 1.243955641984939575e-02 -6.309566088020801544e-03 -1.600185185670852661e-01 2.395621500909328461e-02 -1.173986047506332397e-01 9.545594453811645508e-03 1.551326513290405273e-01 -1.144088953733444214e-01 -1.995830833911895752e-01 -2.956069074571132660e-02 2.179673165082931519e-01 -2.830238044261932373e-01
-1.861702799797058105e-01 1.794856786727905273e-01 -4.464684426784515381e-02 -7.159787416458129883e-02 3.071874380111694336e-02 -1.603973060846328735e-01 -1.654976606369018555e-01 -1.981052458286285400e-01 2.597860991954803467e-01 -1.700592041015625000e-02 -1.626340150833129883e-01 1.276177465915679932e-01 3.762745857238769531e-02 2.461449801921844482e-01 -1.124969720840454102e-01 1.769752204418182373e-01 -1.066936105489730835e-01 2.127444148063659668e-01 1.016608774662017822e-01 -3.753410279750823975e-02 -2.526529133319854736e-01 7.277497649192810059e-02 -9.808693826198577881e-02 -1.295599341392517090e-01 -1.059948503971099854e-01 -4.502229392528533936e-02 -1.756513118743896484e-01 -1.797650754451751709e-02 -2.190817445516586304e-01 -3.751702606678009033e-02 -1.593854427337646484e-01 -2.354232072830200195e-01 -2.177619934082031250e-02 -1.151345372200012207e-01 1.647628247737884521e-01 -1.264405101537704468e-01 2.390986979007720947e-01 -1.779696941375732422e-01 1.211389303207397461e-01 -2.152424156665802002e-01 2.407394349575042725e-01 1.553457081317901611e-01 -2.348049283027648926e-01 -7.451988756656646729e-02 -1.540665924549102783e-01 4.832974076271057129e-02 1.050302088260650635e-01 -5.710494518280029297e-02 -2.398766577243804932e-02 -1.335800290107727051e-01 -1.442465782165527344e-01 3.488749265670776367e-02 -1.718875616788864136e-01 1.734506189823150635e-01 1.954853236675262451e-01 2.155527472496032715e-02
2.809326723217964172e-02 2.150025069713592529e-01 -2.248365879058837891e-01 2.937186043709516525e-03 1.226365342736244202e-01 -1.237378269433975220e-01 1.477980613708496094e-02 2.272467166185379028e-01 -2.719024941325187683e-02 -4.602372646331787109e-02 2.520286142826080322e-01 -6.307608634233474731e-02 -1.183798015117645264e-01 -1.730222254991531372e-01 1.476311776787042618e-02 -2.715641856193542480e-01 -1.892554014921188354e-01 -1.983702480792999268e-01 8.102929592132568359e-02 -5.034844949841499329e-02 1.083087250590324402e-01 2.235152721405029297e-01 6.761905550956726074e-02 1.619261354207992554e-01 -1.433682143688201904e-01 -1.624483168125152588e-01 1.227202266454696655e-01 1.734917163848876953e-01 -1.917773187160491943e-01 -2.357013821601867676e-01 1.858104467391967773e-01 -1.462469995021820068e-01 1.074138730764389038e-01 1.004340201616287231e-01 -1.286462694406509399e-01 1.350713223218917847e-01 -1.103926524519920349e-01 1.505100131034851074e-01 1.675899028778076172e-01 -2.138084322214126587e-01 -1.200404018163681030e-01 -1.300121098756790161e-01 -9.377194195985794067e-02 4.408338665962219238e-02 1.748553216457366943e-01 1.081732064485549927e-01 -2.210412025451660156e-01 1.180510744452476501e-01 5.549408122897148132e-02 -2.587652504444122314e-01 -1.842266619205474854e-01 6.366722751408815384e-03 2.512600123882293701e-01 -2.142642289400100708e-01 -4.282462969422340393e-02 1.064257025718688965e-01
-1.018896400928497314e-01 1.936992406845092773e-01 3.722606301307678223e-01 1.447797417640686035e-01 1.996024698019027710e-02 -1.381237059831619263e-01 4.845131188631057739e-02 2.253068685531616211e-01 -1.972891241312026978e-01 -3.350284323096275330e-02 2.170785367488861084e-01 2.337083965539932251e-02 2.422468364238739014e-01 7.279726117849349976e-02 2.626903951168060303e-01 -1.906002610921859741e-01 -2.232151329517364502e-01 -9.842327982187271118e-02 2.192000895738601685e-01 2.049062103033065796e-01 2.099489718675613403e-01 -2.443476319313049316e-01 1.164619550108909607e-01 2.300938665866851807e-01 2.019714415073394775e-01 -2.844019979238510132e-02 1.382993757724761963e-01 2.014493495225906372e-01 -2.507101595401763916e-01 6.920675188302993774e-02 -1.919525265693664551e-01 1.292916387319564819e-01 1.637746207416057587e-02 -1.047818586230278015e-01 1.905686259269714355e-01 -1.567490547895431519e-01 -1.435160785913467407e-01 1.068096309900283813e-01 1.431030407547950745e-02 -1.841099411249160767e-01 -1.180323958396911621e-02 1.239470615983009338e-01 1.713215373456478119e-02 -2.924850583076477051e-01 9.893407113850116730e-03 6.080023571848869324e-02 1.261218041181564331e-01 1.087286397814750671e-01 -2.889174818992614746e-01 2.523954510688781738e-01 -2.602441422641277313e-02 2.258087396621704102e-01 1.373651325702667236e-01 -2.069561779499053955e-01 -1.208040281198918819e-03 8.807917684316635132e-02
-1.881689578294754028e-01 -2.360896468162536621e-01 -2.537193149328231812e-02 8.941055834293365479e-02 -3.645415976643562317e-02 2.248629927635192871e-02 2.382244765758514404e-01 -2.336934674531221390e-03 2.004683613777160645e-01 5.873317271471023560e-02 1.660854816436767578e-01 -1.343654096126556396e-01 4.987055063247680664e-02 2.174360491335391998e-02 2.000601589679718018e-01 -9.247584640979766846e-02 -2.547648847103118896e-01 5.147347599267959595e-02 5.156615376472473145e-02 2.506942749023437500e-01 5.784158036112785339e-02 -1.880311071872711182e-01 -1.977528631687164307e-01 -2.156330347061157227e-01 -6.005867570638656616e-02 -9.473066776990890503e-02 -7.306380569934844971e-02 3.387993574142456055e-02 -6.832815706729888916e-02 -2.005712091922760010e-01 -8.205081522464752197e-02 -1.205615103244781494e-01 2.606409788131713867e-01 1.880685240030288696e-01 6.547298282384872437e-02 1.455813050270080566e-01 -9.127730131149291992e-02 2.178771942853927612e-01 -6.684482097625732422e-03 -7.719592750072479248e-02 -5.153119564056396484e-04 1.254013478755950928e-01 -2.457775920629501343e-01 -1.547363400459289551e-01 7.775411009788513184e-02 6.914409995079040527e-02 -1.406244635581970215e-01 -2.526730298995971680e-01 -6.644389033317565918e-02 -2.560591995716094971e-01 -2.863119542598724365e-02 -1.197943910956382751e-01 -5.425934493541717529e-02 -4.391488805413246155e-02 -4.487201943993568420e-02 -2.210592329502105713e-01
-1.360402554273605347e-01 -1.026559919118881226e-01 -1.768183410167694092e-01 -1.509806215763092041e-01 -7.571548223495483398e-03 -1.327405720949172974e-01 1.202726662158966064e-01 -2.529927194118499756e-01 3.628328442573547363e-02 2.213929891586303711e-01 -1.578988432884216309e-01 -1.257511228322982788e-01 -3.097431361675262451e-02 1.385598778724670410e-01 2.089635133743286133e-01 -1.430305838584899902e-02 2.918523550033569336e-02 -6.201514601707458496e-02 -1.644092500209808350e-01 -1.679182052612304688e-02 -2.183402329683303833e-01 6.404826045036315918e-02 7.748603820800781250e-03 -2.332159280776977539e-01 7.059314846992492676e-02 -1.523172855377197266e-01 1.818810403347015381e-01 -2.666658461093902588e-01 -2.234540879726409912e-02 -1.061530709266662598e-01 -3.083080053329467773e-03 1.346258521080017090e-01 -2.402171194553375244e-01 1.773396432399749756e-01 -2.018027007579803467e-02 -8.472809195518493652e-02 -1.149304360151290894e-01 1.257793605327606201e-01 -2.572995126247406006e-01 -2.347097843885421753e-01 -2.623855769634246826e-01 -1.145614981651306152e-01 -2.221680283546447754e-01 -6.787599623203277588e-02 1.578790843486785889e-01 -4.318970441818237305e-02 6.054779887199401855e-02 -2.097642123699188232e-01 -1.147463619709014893e-01 -1.708104908466339111e-01 7.593676447868347168e-02 1.760182082653045654e-01 -1.498543173074722290e-01 -8.040355145931243896e-02 -2.195800393819808960e-01 4.914453625679016113e-02
-1.913995593786239624e-01 2.508858740329742432e-01 -2.122833728790283203e-01 -9.123531728982925415e-02 2.083862274885177612e-01 3.104358911514282227e-02 -1.633692681789398193e-01 1.902812868356704712e-01 3.243451118469238281e-01 1.525388658046722412e-01 2.785572707653045654e-01 8.871815353631973267e-02 -3.928492963314056396e-02 2.610960006713867188e-01 -1.256344616413116455e-01 2.481107264757156372e-01 1.636094599962234497e-01 8.875787258148193359e-02 -8.598532527685165405e-02 2.443161755800247192e-01 3.125828504562377930e-01 1.743999123573303223e-01 1.769147813320159912e-01 2.737922370433807373e-01 3.861714527010917664e-02 -2.892816253006458282e-02 -1.415039785206317902e-02 -6.314094364643096924e-02 2.476979792118072510e-01 -3.374529778957366943e-01 -1.508881449699401855e-01 1.445708423852920532e-01 -1.769774854183197021e-01 1.378908902406692505e-01 2.886765003204345703e-01 -1.673737168312072754e-01 5.473230779170989990e-02 1.805945038795471191e-01 7.260990142822265625e-02 1.739127039909362793e-01 -1.136943995952606201e-01 -3.071023523807525635e-01 6.603913754224777222e-02 2.105107307434082031e-01 -6.121882051229476929e-02 1.141606643795967102e-01 2.243403941392898560e-01 1.832772493362426758e-01 -2.444465607404708862e-01 -1.871289163827896118e-01 -2.479784935712814331e-01 -2.153724879026412964e-01 -8.755394816398620605e-02 -2.330006808042526245e-01 -2.315004169940948486e-01 -4.170888289809226990e-02
3.595941364765167236e-01 -1.691151410341262817e-02 5.841533839702606201e-02 9.160974062979221344e-03 -2.256187349557876587e-01 -1.744042485952377319e-01 -2.264745533466339111e-01 1.962718218564987183e-01 8.653771877288818359e-02 -1.542334556579589844e-01 -2.172318287193775177e-02 -3.044387996196746826e-01 -1.434069871902465820e-02 -3.171909749507904053e-01 -6.005509197711944580e-02 -8.626040816307067871e-02 -2.663502097129821777e-01 -2.211597189307212830e-02 -2.695950269699096680e-01 2.269315719604492188e-01 1.963853687047958374e-01 1.282718181610107422e-01 -1.163198128342628479e-01 1.976522505283355713e-01 -7.066825032234191895e-02 2.090555280447006226e-01 2.049649357795715332e-01 -3.159402869641780853e-03 -1.434988081455230713e-01 1.204940527677536011e-01 1.594005972146987915e-01 -1.089236736297607422e-01 1.150200664997100830e-01 1.214739158749580383e-01 4.223445057868957520e-02 -1.689879447221755981e-01 -2.534646689891815186e-01 2.493711113929748535e-01 2.840576171875000000e-01 1.212490797042846680e-01 1.787066757678985596e-01 -9.226099401712417603e-02 -9.159972891211509705e-03 1.059542372822761536e-01 -1.685034483671188354e-01 5.758541822433471680e-02 -2.438448667526245117e-01 -8.096109330654144287e-02 -1.964179575443267822e-01 -1.913882493972778320e-01 -7.059658877551555634e-03 -1.566897779703140259e-01 9.422823786735534668e-02 -6.760747730731964111e-02 3.224082589149475098e-01 -8.223834633827209473e-02
2.037720680236816406e-01 1.584320813417434692e-01 7.623618841171264648e-02 -2.297160178422927856e-01 2.076182216405868530e-01 1.055884361267089844e-01 -6.437231600284576416e-02 3.356868028640747070e-01 9.470045566558837891e-02 -2.114791423082351685e-01 1.589725315570831299e-01 1.308375746011734009e-01 2.218262851238250732e-01 -8.897862397134304047e-03 -2.886279225349426270e-01 2.049829065799713135e-01 3.843208774924278259e-02 -3.400053456425666809e-02 -1.549504548311233521e-01 5.908839404582977295e-02 -1.248812153935432434e-01 1.935103833675384521e-01 -6.312932819128036499e-02 2.291677594184875488e-01 -3.047186695039272308e-02 -2.183489799499511719e-01 -6.867521256208419800e-02 1.211329326033592224e-01 1.123499870300292969e-02 2.108903080224990845e-01 -2.210345864295959473e-01 4.955631494522094727e-02 -8.293578028678894043e-02 2.319802343845367432e-01 -4.431349411606788635e-02 1.900324821472167969e-01 2.573509812355041504e-01 -7.886422425508499146e-02 -5.928403884172439575e-02 2.100473791360855103e-01 -1.140843629837036133e-01 -6.144054234027862549e-02 -1.707088202238082886e-01 4.823181405663490295e-02 1.687989756464958191e-02 5.310200154781341553e-02 -9.885226935148239136e-02 -3.320745006203651428e-02 -1.970877647399902344e-01 -1.599002033472061157e-01 1.387443989515304565e-01 -2.054560035467147827e-01 1.324482262134552002e-01 9.174273908138275146e-02 -5.353068560361862183e-02 2.253243923187255859e-01
